digraph Tree {
node [shape=box, style="filled, rounded", color="black", fontname="helvetica"] ;
edge [fontname="helvetica"] ;
rankdir=LR ;
0 [label="GenHlth <= 3.5\nentropy = 0.45\nsamples = 100.0%\nvalue = [0.906, 0.094]", fillcolor="#e88e4e"] ;
1 [label="Age <= 8.5\nentropy = 0.335\nsamples = 82.8%\nvalue = [0.938, 0.062]", fillcolor="#e78946"] ;
0 -> 1 [labeldistance=2.5, labelangle=-45, headlabel="True"] ;
2 [label="HighBP <= 0.5\nentropy = 0.149\nsamples = 44.5%\nvalue = [0.979, 0.021]", fillcolor="#e6843d"] ;
1 -> 2 ;
3 [label="Stroke <= 0.5\nentropy = 0.09\nsamples = 33.7%\nvalue = [0.989, 0.011]", fillcolor="#e5823b"] ;
2 -> 3 ;
4 [label="GenHlth <= 2.5\nentropy = 0.083\nsamples = 33.5%\nvalue = [0.99, 0.01]", fillcolor="#e5823b"] ;
3 -> 4 ;
5 [label="Age <= 6.5\nentropy = 0.057\nsamples = 24.3%\nvalue = [0.993, 0.007]", fillcolor="#e5823a"] ;
4 -> 5 ;
6 [label="DiffWalk <= 0.5\nentropy = 0.036\nsamples = 15.6%\nvalue = [0.996, 0.004]", fillcolor="#e5813a"] ;
5 -> 6 ;
<<<<<<< HEAD
7 [label="Age <= 4.5\nentropy = 0.034\nsamples = 15.4%\nvalue = [0.996, 0.004]", fillcolor="#e5813a"] ;
6 -> 7 ;
8 [label="AnyHealthcare <= 0.5\nentropy = 0.022\nsamples = 8.6%\nvalue = [0.998, 0.002]", fillcolor="#e58139"] ;
7 -> 8 ;
9 [label="entropy = 0.058\nsamples = 0.7%\nvalue = [0.993, 0.007]", fillcolor="#e5823a"] ;
8 -> 9 ;
10 [label="entropy = 0.019\nsamples = 8.0%\nvalue = [0.998, 0.002]", fillcolor="#e58139"] ;
8 -> 10 ;
11 [label="Smoker <= 0.5\nentropy = 0.048\nsamples = 6.8%\nvalue = [0.995, 0.005]", fillcolor="#e5823a"] ;
7 -> 11 ;
12 [label="entropy = 0.037\nsamples = 4.8%\nvalue = [0.996, 0.004]", fillcolor="#e5813a"] ;
11 -> 12 ;
13 [label="entropy = 0.072\nsamples = 2.0%\nvalue = [0.991, 0.009]", fillcolor="#e5823b"] ;
11 -> 13 ;
14 [label="Diabetes_bin <= 0.5\nentropy = 0.189\nsamples = 0.2%\nvalue = [0.971, 0.029]", fillcolor="#e6853f"] ;
6 -> 14 ;
15 [label="PhysHlth_bin <= 1.5\nentropy = 0.152\nsamples = 0.2%\nvalue = [0.978, 0.022]", fillcolor="#e6843d"] ;
14 -> 15 ;
16 [label="entropy = 0.079\nsamples = 0.2%\nvalue = [0.99, 0.01]", fillcolor="#e5823b"] ;
15 -> 16 ;
17 [label="entropy = 0.419\nsamples = 0.0%\nvalue = [0.915, 0.085]", fillcolor="#e78d4b"] ;
15 -> 17 ;
18 [label="Veggies <= 0.5\nentropy = 0.696\nsamples = 0.0%\nvalue = [0.812, 0.188]", fillcolor="#eb9e67"] ;
14 -> 18 ;
19 [label="entropy = 0.0\nsamples = 0.0%\nvalue = [1.0, 0.0]", fillcolor="#e58139"] ;
18 -> 19 ;
20 [label="entropy = 0.881\nsamples = 0.0%\nvalue = [0.7, 0.3]", fillcolor="#f0b78e"] ;
18 -> 20 ;
21 [label="HighChol <= 0.5\nentropy = 0.089\nsamples = 8.7%\nvalue = [0.989, 0.011]", fillcolor="#e5823b"] ;
5 -> 21 ;
22 [label="BMI_bin <= 2.5\nentropy = 0.064\nsamples = 6.2%\nvalue = [0.992, 0.008]", fillcolor="#e5823b"] ;
21 -> 22 ;
23 [label="GenHlth <= 1.5\nentropy = 0.052\nsamples = 5.0%\nvalue = [0.994, 0.006]", fillcolor="#e5823a"] ;
22 -> 23 ;
24 [label="entropy = 0.031\nsamples = 2.3%\nvalue = [0.997, 0.003]", fillcolor="#e5813a"] ;
23 -> 24 ;
25 [label="entropy = 0.069\nsamples = 2.7%\nvalue = [0.992, 0.008]", fillcolor="#e5823b"] ;
23 -> 25 ;
26 [label="PhysHlth_bin <= 1.5\nentropy = 0.109\nsamples = 1.2%\nvalue = [0.986, 0.014]", fillcolor="#e5833c"] ;
22 -> 26 ;
27 [label="entropy = 0.102\nsamples = 1.2%\nvalue = [0.987, 0.013]", fillcolor="#e5833c"] ;
26 -> 27 ;
28 [label="entropy = 0.431\nsamples = 0.0%\nvalue = [0.912, 0.088]", fillcolor="#e88d4c"] ;
26 -> 28 ;
29 [label="Sex <= 0.5\nentropy = 0.144\nsamples = 2.5%\nvalue = [0.98, 0.02]", fillcolor="#e6843d"] ;
21 -> 29 ;
30 [label="DiffWalk <= 0.5\nentropy = 0.091\nsamples = 1.4%\nvalue = [0.988, 0.012]", fillcolor="#e5823b"] ;
29 -> 30 ;
31 [label="entropy = 0.077\nsamples = 1.3%\nvalue = [0.991, 0.009]", fillcolor="#e5823b"] ;
30 -> 31 ;
32 [label="entropy = 0.374\nsamples = 0.0%\nvalue = [0.928, 0.072]", fillcolor="#e78b48"] ;
30 -> 32 ;
33 [label="GenHlth <= 1.5\nentropy = 0.2\nsamples = 1.1%\nvalue = [0.969, 0.031]", fillcolor="#e6853f"] ;
29 -> 33 ;
34 [label="entropy = 0.072\nsamples = 0.3%\nvalue = [0.991, 0.009]", fillcolor="#e5823b"] ;
33 -> 34 ;
35 [label="entropy = 0.247\nsamples = 0.8%\nvalue = [0.959, 0.041]", fillcolor="#e68641"] ;
33 -> 35 ;
36 [label="Age <= 6.5\nentropy = 0.145\nsamples = 9.2%\nvalue = [0.979, 0.021]", fillcolor="#e6843d"] ;
4 -> 36 ;
37 [label="Age <= 4.5\nentropy = 0.091\nsamples = 5.9%\nvalue = [0.988, 0.012]", fillcolor="#e5823b"] ;
36 -> 37 ;
38 [label="Smoker <= 0.5\nentropy = 0.061\nsamples = 3.2%\nvalue = [0.993, 0.007]", fillcolor="#e5823a"] ;
37 -> 38 ;
39 [label="Age <= 3.5\nentropy = 0.041\nsamples = 2.0%\nvalue = [0.996, 0.004]", fillcolor="#e5823a"] ;
38 -> 39 ;
40 [label="entropy = 0.026\nsamples = 1.4%\nvalue = [0.997, 0.003]", fillcolor="#e5813a"] ;
39 -> 40 ;
41 [label="entropy = 0.071\nsamples = 0.6%\nvalue = [0.991, 0.009]", fillcolor="#e5823b"] ;
39 -> 41 ;
42 [label="MentHlth_bin <= 0.5\nentropy = 0.09\nsamples = 1.3%\nvalue = [0.989, 0.011]", fillcolor="#e5823b"] ;
38 -> 42 ;
43 [label="entropy = 0.076\nsamples = 1.0%\nvalue = [0.991, 0.009]", fillcolor="#e5823b"] ;
42 -> 43 ;
44 [label="entropy = 0.145\nsamples = 0.2%\nvalue = [0.979, 0.021]", fillcolor="#e6843d"] ;
42 -> 44 ;
45 [label="Education <= 5.5\nentropy = 0.125\nsamples = 2.6%\nvalue = [0.983, 0.017]", fillcolor="#e5833c"] ;
37 -> 45 ;
46 [label="HighChol <= 0.5\nentropy = 0.155\nsamples = 1.5%\nvalue = [0.978, 0.022]", fillcolor="#e6843e"] ;
45 -> 46 ;
47 [label="entropy = 0.124\nsamples = 1.1%\nvalue = [0.983, 0.017]", fillcolor="#e5833c"] ;
46 -> 47 ;
48 [label="entropy = 0.226\nsamples = 0.4%\nvalue = [0.963, 0.037]", fillcolor="#e68641"] ;
46 -> 48 ;
49 [label="Diabetes_bin <= 0.5\nentropy = 0.081\nsamples = 1.1%\nvalue = [0.99, 0.01]", fillcolor="#e5823b"] ;
45 -> 49 ;
50 [label="entropy = 0.071\nsamples = 1.0%\nvalue = [0.991, 0.009]", fillcolor="#e5823b"] ;
49 -> 50 ;
51 [label="entropy = 0.187\nsamples = 0.1%\nvalue = [0.971, 0.029]", fillcolor="#e6853f"] ;
49 -> 51 ;
52 [label="Sex <= 0.5\nentropy = 0.228\nsamples = 3.3%\nvalue = [0.963, 0.037]", fillcolor="#e68641"] ;
36 -> 52 ;
53 [label="Smoker <= 0.5\nentropy = 0.162\nsamples = 1.9%\nvalue = [0.976, 0.024]", fillcolor="#e6843e"] ;
52 -> 53 ;
54 [label="MentHlth_bin <= 0.5\nentropy = 0.118\nsamples = 1.0%\nvalue = [0.984, 0.016]", fillcolor="#e5833c"] ;
53 -> 54 ;
55 [label="entropy = 0.099\nsamples = 0.9%\nvalue = [0.987, 0.013]", fillcolor="#e5833c"] ;
54 -> 55 ;
56 [label="entropy = 0.269\nsamples = 0.1%\nvalue = [0.954, 0.046]", fillcolor="#e68743"] ;
54 -> 56 ;
57 [label="HighChol <= 0.5\nentropy = 0.21\nsamples = 0.9%\nvalue = [0.967, 0.033]", fillcolor="#e68540"] ;
53 -> 57 ;
58 [label="entropy = 0.147\nsamples = 0.5%\nvalue = [0.979, 0.021]", fillcolor="#e6843d"] ;
57 -> 58 ;
59 [label="entropy = 0.291\nsamples = 0.3%\nvalue = [0.949, 0.051]", fillcolor="#e68844"] ;
57 -> 59 ;
60 [label="HighChol <= 0.5\nentropy = 0.304\nsamples = 1.4%\nvalue = [0.946, 0.054]", fillcolor="#e68844"] ;
52 -> 60 ;
61 [label="BMI_bin <= 1.5\nentropy = 0.212\nsamples = 0.8%\nvalue = [0.966, 0.034]", fillcolor="#e68540"] ;
60 -> 61 ;
62 [label="entropy = 0.324\nsamples = 0.2%\nvalue = [0.941, 0.059]", fillcolor="#e78945"] ;
61 -> 62 ;
63 [label="entropy = 0.178\nsamples = 0.7%\nvalue = [0.973, 0.027]", fillcolor="#e6843e"] ;
61 -> 63 ;
64 [label="Diabetes_bin <= 0.5\nentropy = 0.415\nsamples = 0.6%\nvalue = [0.916, 0.084]", fillcolor="#e78d4b"] ;
60 -> 64 ;
65 [label="entropy = 0.365\nsamples = 0.5%\nvalue = [0.93, 0.07]", fillcolor="#e78a48"] ;
64 -> 65 ;
66 [label="entropy = 0.621\nsamples = 0.1%\nvalue = [0.845, 0.155]", fillcolor="#ea985d"] ;
64 -> 66 ;
67 [label="PhysHlth_bin <= 0.5\nentropy = 0.655\nsamples = 0.2%\nvalue = [0.831, 0.169]", fillcolor="#ea9b61"] ;
3 -> 67 ;
68 [label="Sex <= 0.5\nentropy = 0.603\nsamples = 0.2%\nvalue = [0.853, 0.147]", fillcolor="#e9975b"] ;
67 -> 68 ;
69 [label="Age <= 3.5\nentropy = 0.512\nsamples = 0.1%\nvalue = [0.886, 0.114]", fillcolor="#e89152"] ;
68 -> 69 ;
70 [label="MentHlth_bin <= 0.5\nentropy = 0.84\nsamples = 0.0%\nvalue = [0.731, 0.269]", fillcolor="#efaf82"] ;
69 -> 70 ;
71 [label="Age <= 1.5\nentropy = 0.934\nsamples = 0.0%\nvalue = [0.65, 0.35]", fillcolor="#f3c5a4"] ;
70 -> 71 ;
72 [label="entropy = 0.0\nsamples = 0.0%\nvalue = [1.0, 0.0]", fillcolor="#e58139"] ;
71 -> 72 ;
73 [label="entropy = 0.989\nsamples = 0.0%\nvalue = [0.562, 0.438]", fillcolor="#f9e3d3"] ;
71 -> 73 ;
74 [label="entropy = 0.0\nsamples = 0.0%\nvalue = [1.0, 0.0]", fillcolor="#e58139"] ;
70 -> 74 ;
75 [label="Age <= 5.5\nentropy = 0.45\nsamples = 0.1%\nvalue = [0.906, 0.094]", fillcolor="#e88e4e"] ;
69 -> 75 ;
76 [label="GenHlth <= 1.5\nentropy = 0.146\nsamples = 0.0%\nvalue = [0.979, 0.021]", fillcolor="#e6843d"] ;
75 -> 76 ;
77 [label="entropy = 0.592\nsamples = 0.0%\nvalue = [0.857, 0.143]", fillcolor="#e9965a"] ;
76 -> 77 ;
78 [label="entropy = 0.0\nsamples = 0.0%\nvalue = [1.0, 0.0]", fillcolor="#e58139"] ;
76 -> 78 ;
79 [label="HvyAlcoholConsump <= 0.5\nentropy = 0.52\nsamples = 0.1%\nvalue = [0.883, 0.117]", fillcolor="#e89253"] ;
75 -> 79 ;
80 [label="entropy = 0.546\nsamples = 0.1%\nvalue = [0.874, 0.126]", fillcolor="#e99356"] ;
79 -> 80 ;
81 [label="entropy = 0.0\nsamples = 0.0%\nvalue = [1.0, 0.0]", fillcolor="#e58139"] ;
79 -> 81 ;
82 [label="Smoker <= 0.5\nentropy = 0.717\nsamples = 0.1%\nvalue = [0.803, 0.197]", fillcolor="#eba06a"] ;
68 -> 82 ;
83 [label="Income <= 3.5\nentropy = 0.481\nsamples = 0.0%\nvalue = [0.896, 0.104]", fillcolor="#e89050"] ;
82 -> 83 ;
84 [label="entropy = 0.971\nsamples = 0.0%\nvalue = [0.4, 0.6]", fillcolor="#bddef6"] ;
83 -> 84 ;
85 [label="Veggies <= 0.5\nentropy = 0.364\nsamples = 0.0%\nvalue = [0.931, 0.069]", fillcolor="#e78a48"] ;
83 -> 85 ;
86 [label="entropy = 0.0\nsamples = 0.0%\nvalue = [1.0, 0.0]", fillcolor="#e58139"] ;
85 -> 86 ;
87 [label="entropy = 0.451\nsamples = 0.0%\nvalue = [0.906, 0.094]", fillcolor="#e88e4e"] ;
85 -> 87 ;
88 [label="DiffWalk <= 0.5\nentropy = 0.873\nsamples = 0.0%\nvalue = [0.707, 0.293]", fillcolor="#f0b58b"] ;
82 -> 88 ;
89 [label="Education <= 4.5\nentropy = 0.908\nsamples = 0.0%\nvalue = [0.676, 0.324]", fillcolor="#f1bd98"] ;
88 -> 89 ;
90 [label="entropy = 0.985\nsamples = 0.0%\nvalue = [0.571, 0.429]", fillcolor="#f8e0ce"] ;
89 -> 90 ;
91 [label="entropy = 0.746\nsamples = 0.0%\nvalue = [0.788, 0.212]", fillcolor="#eca36e"] ;
89 -> 91 ;
92 [label="entropy = 0.0\nsamples = 0.0%\nvalue = [1.0, 0.0]", fillcolor="#e58139"] ;
88 -> 92 ;
93 [label="Education <= 3.5\nentropy = 0.925\nsamples = 0.0%\nvalue = [0.66, 0.34]", fillcolor="#f2c29f"] ;
67 -> 93 ;
94 [label="entropy = 0.0\nsamples = 0.0%\nvalue = [1.0, 0.0]", fillcolor="#e58139"] ;
93 -> 94 ;
95 [label="BMI_bin <= 2.5\nentropy = 0.959\nsamples = 0.0%\nvalue = [0.619, 0.381]", fillcolor="#f5cfb3"] ;
93 -> 95 ;
96 [label="GenHlth <= 2.5\nentropy = 0.863\nsamples = 0.0%\nvalue = [0.714, 0.286]", fillcolor="#efb388"] ;
95 -> 96 ;
97 [label="entropy = 0.0\nsamples = 0.0%\nvalue = [1.0, 0.0]", fillcolor="#e58139"] ;
96 -> 97 ;
98 [label="Education <= 5.5\nentropy = 0.918\nsamples = 0.0%\nvalue = [0.667, 0.333]", fillcolor="#f2c09c"] ;
96 -> 98 ;
99 [label="entropy = 0.764\nsamples = 0.0%\nvalue = [0.778, 0.222]", fillcolor="#eca572"] ;
98 -> 99 ;
100 [label="entropy = 0.918\nsamples = 0.0%\nvalue = [0.333, 0.667]", fillcolor="#9ccef2"] ;
98 -> 100 ;
101 [label="PhysActivity <= 0.5\nentropy = 0.985\nsamples = 0.0%\nvalue = [0.429, 0.571]", fillcolor="#cee6f8"] ;
95 -> 101 ;
102 [label="entropy = 0.592\nsamples = 0.0%\nvalue = [0.857, 0.143]", fillcolor="#e9965a"] ;
101 -> 102 ;
103 [label="entropy = 0.0\nsamples = 0.0%\nvalue = [0.0, 1.0]", fillcolor="#399de5"] ;
101 -> 103 ;
104 [label="HighChol <= 0.5\nentropy = 0.297\nsamples = 10.8%\nvalue = [0.947, 0.053]", fillcolor="#e68844"] ;
2 -> 104 ;
105 [label="Stroke <= 0.5\nentropy = 0.177\nsamples = 5.8%\nvalue = [0.973, 0.027]", fillcolor="#e6843e"] ;
104 -> 105 ;
106 [label="Diabetes_bin <= 0.5\nentropy = 0.164\nsamples = 5.7%\nvalue = [0.976, 0.024]", fillcolor="#e6843e"] ;
105 -> 106 ;
107 [label="Income <= 6.5\nentropy = 0.144\nsamples = 5.1%\nvalue = [0.98, 0.02]", fillcolor="#e6843d"] ;
106 -> 107 ;
108 [label="Age <= 6.5\nentropy = 0.198\nsamples = 1.8%\nvalue = [0.969, 0.031]", fillcolor="#e6853f"] ;
107 -> 108 ;
109 [label="NoDocbcCost <= 0.5\nentropy = 0.137\nsamples = 0.9%\nvalue = [0.981, 0.019]", fillcolor="#e6833d"] ;
108 -> 109 ;
110 [label="entropy = 0.105\nsamples = 0.7%\nvalue = [0.986, 0.014]", fillcolor="#e5833c"] ;
109 -> 110 ;
111 [label="entropy = 0.244\nsamples = 0.2%\nvalue = [0.96, 0.04]", fillcolor="#e68641"] ;
109 -> 111 ;
112 [label="PhysHlth_bin <= 0.5\nentropy = 0.255\nsamples = 0.9%\nvalue = [0.957, 0.043]", fillcolor="#e68742"] ;
108 -> 112 ;
113 [label="entropy = 0.231\nsamples = 0.8%\nvalue = [0.963, 0.037]", fillcolor="#e68641"] ;
112 -> 113 ;
114 [label="entropy = 0.456\nsamples = 0.1%\nvalue = [0.904, 0.096]", fillcolor="#e88e4e"] ;
112 -> 114 ;
115 [label="Smoker <= 0.5\nentropy = 0.111\nsamples = 3.3%\nvalue = [0.985, 0.015]", fillcolor="#e5833c"] ;
107 -> 115 ;
116 [label="Age <= 7.5\nentropy = 0.079\nsamples = 2.1%\nvalue = [0.99, 0.01]", fillcolor="#e5823b"] ;
115 -> 116 ;
117 [label="entropy = 0.061\nsamples = 1.5%\nvalue = [0.993, 0.007]", fillcolor="#e5823a"] ;
116 -> 117 ;
118 [label="entropy = 0.122\nsamples = 0.6%\nvalue = [0.983, 0.017]", fillcolor="#e5833c"] ;
116 -> 118 ;
119 [label="Veggies <= 0.5\nentropy = 0.163\nsamples = 1.2%\nvalue = [0.976, 0.024]", fillcolor="#e6843e"] ;
115 -> 119 ;
120 [label="entropy = 0.029\nsamples = 0.2%\nvalue = [0.997, 0.003]", fillcolor="#e5813a"] ;
119 -> 120 ;
121 [label="entropy = 0.181\nsamples = 1.0%\nvalue = [0.973, 0.027]", fillcolor="#e6853f"] ;
119 -> 121 ;
122 [label="DiffWalk <= 0.5\nentropy = 0.316\nsamples = 0.6%\nvalue = [0.943, 0.057]", fillcolor="#e78945"] ;
106 -> 122 ;
123 [label="Sex <= 0.5\nentropy = 0.271\nsamples = 0.5%\nvalue = [0.954, 0.046]", fillcolor="#e68743"] ;
122 -> 123 ;
124 [label="Fruits <= 0.5\nentropy = 0.15\nsamples = 0.2%\nvalue = [0.978, 0.022]", fillcolor="#e6843d"] ;
123 -> 124 ;
125 [label="entropy = 0.0\nsamples = 0.1%\nvalue = [1.0, 0.0]", fillcolor="#e58139"] ;
124 -> 125 ;
126 [label="entropy = 0.215\nsamples = 0.1%\nvalue = [0.966, 0.034]", fillcolor="#e68540"] ;
124 -> 126 ;
127 [label="PhysActivity <= 0.5\nentropy = 0.366\nsamples = 0.2%\nvalue = [0.93, 0.07]", fillcolor="#e78a48"] ;
123 -> 127 ;
128 [label="entropy = 0.212\nsamples = 0.1%\nvalue = [0.966, 0.034]", fillcolor="#e68540"] ;
127 -> 128 ;
129 [label="entropy = 0.409\nsamples = 0.2%\nvalue = [0.918, 0.082]", fillcolor="#e78c4b"] ;
127 -> 129 ;
130 [label="Veggies <= 0.5\nentropy = 0.527\nsamples = 0.1%\nvalue = [0.881, 0.119]", fillcolor="#e99254"] ;
122 -> 130 ;
131 [label="Education <= 4.5\nentropy = 0.842\nsamples = 0.0%\nvalue = [0.73, 0.27]", fillcolor="#efb082"] ;
130 -> 131 ;
132 [label="entropy = 0.469\nsamples = 0.0%\nvalue = [0.9, 0.1]", fillcolor="#e88f4f"] ;
131 -> 132 ;
133 [label="entropy = 0.998\nsamples = 0.0%\nvalue = [0.529, 0.471]", fillcolor="#fcf1e9"] ;
131 -> 133 ;
134 [label="PhysActivity <= 0.5\nentropy = 0.389\nsamples = 0.1%\nvalue = [0.924, 0.076]", fillcolor="#e78b49"] ;
130 -> 134 ;
135 [label="entropy = 0.523\nsamples = 0.0%\nvalue = [0.882, 0.118]", fillcolor="#e89253"] ;
134 -> 135 ;
136 [label="entropy = 0.286\nsamples = 0.0%\nvalue = [0.95, 0.05]", fillcolor="#e68843"] ;
134 -> 136 ;
137 [label="Age <= 5.5\nentropy = 0.643\nsamples = 0.1%\nvalue = [0.837, 0.163]", fillcolor="#ea9a60"] ;
105 -> 137 ;
138 [label="AnyHealthcare <= 0.5\nentropy = 0.149\nsamples = 0.0%\nvalue = [0.979, 0.021]", fillcolor="#e6843d"] ;
137 -> 138 ;
139 [label="Income <= 2.5\nentropy = 0.503\nsamples = 0.0%\nvalue = [0.889, 0.111]", fillcolor="#e89152"] ;
138 -> 139 ;
140 [label="entropy = 0.0\nsamples = 0.0%\nvalue = [1.0, 0.0]", fillcolor="#e58139"] ;
139 -> 140 ;
141 [label="entropy = 0.811\nsamples = 0.0%\nvalue = [0.75, 0.25]", fillcolor="#eeab7b"] ;
139 -> 141 ;
142 [label="entropy = 0.0\nsamples = 0.0%\nvalue = [1.0, 0.0]", fillcolor="#e58139"] ;
138 -> 142 ;
143 [label="Diabetes_bin <= 0.5\nentropy = 0.732\nsamples = 0.1%\nvalue = [0.795, 0.205]", fillcolor="#eca16c"] ;
137 -> 143 ;
144 [label="Income <= 4.5\nentropy = 0.624\nsamples = 0.1%\nvalue = [0.844, 0.156]", fillcolor="#ea985d"] ;
143 -> 144 ;
145 [label="Veggies <= 0.5\nentropy = 0.863\nsamples = 0.0%\nvalue = [0.714, 0.286]", fillcolor="#efb388"] ;
144 -> 145 ;
146 [label="entropy = 0.353\nsamples = 0.0%\nvalue = [0.933, 0.067]", fillcolor="#e78a47"] ;
145 -> 146 ;
147 [label="entropy = 0.975\nsamples = 0.0%\nvalue = [0.593, 0.407]", fillcolor="#f7d8c1"] ;
145 -> 147 ;
148 [label="Age <= 7.5\nentropy = 0.459\nsamples = 0.0%\nvalue = [0.903, 0.097]", fillcolor="#e88e4e"] ;
144 -> 148 ;
149 [label="entropy = 0.636\nsamples = 0.0%\nvalue = [0.839, 0.161]", fillcolor="#ea995f"] ;
148 -> 149 ;
150 [label="entropy = 0.0\nsamples = 0.0%\nvalue = [1.0, 0.0]", fillcolor="#e58139"] ;
148 -> 150 ;
151 [label="PhysActivity <= 0.5\nentropy = 0.996\nsamples = 0.0%\nvalue = [0.538, 0.462]", fillcolor="#fbede3"] ;
143 -> 151 ;
152 [label="entropy = 0.0\nsamples = 0.0%\nvalue = [0.0, 1.0]", fillcolor="#399de5"] ;
151 -> 152 ;
153 [label="Age <= 7.5\nentropy = 0.946\nsamples = 0.0%\nvalue = [0.636, 0.364]", fillcolor="#f4c9aa"] ;
151 -> 153 ;
154 [label="entropy = 0.439\nsamples = 0.0%\nvalue = [0.909, 0.091]", fillcolor="#e88e4d"] ;
153 -> 154 ;
155 [label="entropy = 0.946\nsamples = 0.0%\nvalue = [0.364, 0.636]", fillcolor="#aad5f4"] ;
153 -> 155 ;
156 [label="Stroke <= 0.5\nentropy = 0.41\nsamples = 5.1%\nvalue = [0.918, 0.082]", fillcolor="#e78c4b"] ;
104 -> 156 ;
157 [label="Smoker <= 0.5\nentropy = 0.384\nsamples = 4.9%\nvalue = [0.925, 0.075]", fillcolor="#e78b49"] ;
156 -> 157 ;
158 [label="Age <= 5.5\nentropy = 0.293\nsamples = 2.7%\nvalue = [0.948, 0.052]", fillcolor="#e68844"] ;
157 -> 158 ;
159 [label="GenHlth <= 2.5\nentropy = 0.155\nsamples = 0.6%\nvalue = [0.978, 0.022]", fillcolor="#e6843e"] ;
158 -> 159 ;
160 [label="Income <= 2.5\nentropy = 0.048\nsamples = 0.3%\nvalue = [0.995, 0.005]", fillcolor="#e5823a"] ;
159 -> 160 ;
161 [label="entropy = 0.297\nsamples = 0.0%\nvalue = [0.947, 0.053]", fillcolor="#e68844"] ;
160 -> 161 ;
162 [label="entropy = 0.02\nsamples = 0.3%\nvalue = [0.998, 0.002]", fillcolor="#e58139"] ;
160 -> 162 ;
163 [label="DiffWalk <= 0.5\nentropy = 0.234\nsamples = 0.3%\nvalue = [0.962, 0.038]", fillcolor="#e68641"] ;
159 -> 163 ;
164 [label="entropy = 0.251\nsamples = 0.3%\nvalue = [0.958, 0.042]", fillcolor="#e68642"] ;
163 -> 164 ;
165 [label="entropy = 0.0\nsamples = 0.0%\nvalue = [1.0, 0.0]", fillcolor="#e58139"] ;
163 -> 165 ;
166 [label="DiffWalk <= 0.5\nentropy = 0.325\nsamples = 2.2%\nvalue = [0.941, 0.059]", fillcolor="#e78945"] ;
158 -> 166 ;
167 [label="Sex <= 0.5\nentropy = 0.299\nsamples = 1.9%\nvalue = [0.947, 0.053]", fillcolor="#e68844"] ;
166 -> 167 ;
168 [label="entropy = 0.219\nsamples = 0.9%\nvalue = [0.965, 0.035]", fillcolor="#e68640"] ;
167 -> 168 ;
169 [label="entropy = 0.355\nsamples = 1.1%\nvalue = [0.933, 0.067]", fillcolor="#e78a47"] ;
167 -> 169 ;
170 [label="Sex <= 0.5\nentropy = 0.526\nsamples = 0.2%\nvalue = [0.881, 0.119]", fillcolor="#e99254"] ;
166 -> 170 ;
171 [label="entropy = 0.45\nsamples = 0.1%\nvalue = [0.906, 0.094]", fillcolor="#e88e4e"] ;
170 -> 171 ;
172 [label="entropy = 0.626\nsamples = 0.1%\nvalue = [0.843, 0.157]", fillcolor="#ea985e"] ;
170 -> 172 ;
173 [label="DiffWalk <= 0.5\nentropy = 0.482\nsamples = 2.2%\nvalue = [0.896, 0.104]", fillcolor="#e89050"] ;
157 -> 173 ;
174 [label="Age <= 6.5\nentropy = 0.441\nsamples = 1.9%\nvalue = [0.909, 0.091]", fillcolor="#e88e4d"] ;
173 -> 174 ;
175 [label="BMI_bin <= 0.5\nentropy = 0.318\nsamples = 0.6%\nvalue = [0.942, 0.058]", fillcolor="#e78945"] ;
174 -> 175 ;
176 [label="entropy = 0.971\nsamples = 0.0%\nvalue = [0.4, 0.6]", fillcolor="#bddef6"] ;
175 -> 176 ;
177 [label="entropy = 0.309\nsamples = 0.6%\nvalue = [0.944, 0.056]", fillcolor="#e78845"] ;
175 -> 177 ;
178 [label="Sex <= 0.5\nentropy = 0.497\nsamples = 1.2%\nvalue = [0.891, 0.109]", fillcolor="#e89051"] ;
174 -> 178 ;
179 [label="entropy = 0.364\nsamples = 0.5%\nvalue = [0.93, 0.07]", fillcolor="#e78a48"] ;
178 -> 179 ;
180 [label="entropy = 0.576\nsamples = 0.7%\nvalue = [0.863, 0.137]", fillcolor="#e99558"] ;
178 -> 180 ;
181 [label="Age <= 5.5\nentropy = 0.686\nsamples = 0.3%\nvalue = [0.817, 0.183]", fillcolor="#eb9d65"] ;
173 -> 181 ;
182 [label="PhysActivity <= 0.5\nentropy = 0.323\nsamples = 0.0%\nvalue = [0.941, 0.059]", fillcolor="#e78945"] ;
181 -> 182 ;
183 [label="entropy = 0.0\nsamples = 0.0%\nvalue = [1.0, 0.0]", fillcolor="#e58139"] ;
182 -> 183 ;
184 [label="entropy = 0.439\nsamples = 0.0%\nvalue = [0.909, 0.091]", fillcolor="#e88e4d"] ;
182 -> 184 ;
185 [label="Income <= 7.5\nentropy = 0.726\nsamples = 0.3%\nvalue = [0.798, 0.202]", fillcolor="#eca16b"] ;
181 -> 185 ;
186 [label="entropy = 0.765\nsamples = 0.2%\nvalue = [0.778, 0.222]", fillcolor="#eca572"] ;
185 -> 186 ;
187 [label="entropy = 0.326\nsamples = 0.0%\nvalue = [0.94, 0.06]", fillcolor="#e78946"] ;
185 -> 187 ;
188 [label="DiffWalk <= 0.5\nentropy = 0.905\nsamples = 0.2%\nvalue = [0.68, 0.32]", fillcolor="#f1bc96"] ;
156 -> 188 ;
189 [label="CholCheck <= 0.5\nentropy = 0.834\nsamples = 0.1%\nvalue = [0.735, 0.265]", fillcolor="#eeae80"] ;
188 -> 189 ;
190 [label="entropy = 0.0\nsamples = 0.0%\nvalue = [0.0, 1.0]", fillcolor="#399de5"] ;
189 -> 190 ;
191 [label="Age <= 7.5\nentropy = 0.811\nsamples = 0.1%\nvalue = [0.75, 0.25]", fillcolor="#eeab7b"] ;
189 -> 191 ;
192 [label="GenHlth <= 2.5\nentropy = 0.909\nsamples = 0.1%\nvalue = [0.676, 0.324]", fillcolor="#f1bd98"] ;
191 -> 192 ;
193 [label="entropy = 0.998\nsamples = 0.0%\nvalue = [0.529, 0.471]", fillcolor="#fcf1e9"] ;
192 -> 193 ;
194 [label="entropy = 0.822\nsamples = 0.0%\nvalue = [0.743, 0.257]", fillcolor="#eead7d"] ;
192 -> 194 ;
195 [label="Income <= 5.5\nentropy = 0.632\nsamples = 0.0%\nvalue = [0.841, 0.159]", fillcolor="#ea995e"] ;
191 -> 195 ;
196 [label="entropy = 0.842\nsamples = 0.0%\nvalue = [0.73, 0.27]", fillcolor="#efb082"] ;
195 -> 196 ;
197 [label="entropy = 0.397\nsamples = 0.0%\nvalue = [0.922, 0.078]", fillcolor="#e78c4a"] ;
195 -> 197 ;
198 [label="GenHlth <= 1.5\nentropy = 0.984\nsamples = 0.1%\nvalue = [0.575, 0.425]", fillcolor="#f8decb"] ;
188 -> 198 ;
199 [label="entropy = 0.0\nsamples = 0.0%\nvalue = [0.0, 1.0]", fillcolor="#399de5"] ;
198 -> 199 ;
200 [label="Sex <= 0.5\nentropy = 0.972\nsamples = 0.1%\nvalue = [0.598, 0.402]", fillcolor="#f6d6be"] ;
198 -> 200 ;
201 [label="Education <= 4.5\nentropy = 0.937\nsamples = 0.0%\nvalue = [0.647, 0.353]", fillcolor="#f3c6a5"] ;
200 -> 201 ;
202 [label="entropy = 0.822\nsamples = 0.0%\nvalue = [0.743, 0.257]", fillcolor="#eead7e"] ;
201 -> 202 ;
203 [label="entropy = 0.994\nsamples = 0.0%\nvalue = [0.545, 0.455]", fillcolor="#fbeade"] ;
201 -> 203 ;
204 [label="Income <= 6.5\nentropy = 1.0\nsamples = 0.0%\nvalue = [0.5, 0.5]", fillcolor="#ffffff"] ;
200 -> 204 ;
205 [label="entropy = 0.975\nsamples = 0.0%\nvalue = [0.407, 0.593]", fillcolor="#c1e0f7"] ;
204 -> 205 ;
206 [label="entropy = 0.592\nsamples = 0.0%\nvalue = [0.857, 0.143]", fillcolor="#e9965a"] ;
204 -> 206 ;
207 [label="GenHlth <= 2.5\nentropy = 0.498\nsamples = 38.3%\nvalue = [0.891, 0.109]", fillcolor="#e89051"] ;
1 -> 207 ;
208 [label="Sex <= 0.5\nentropy = 0.374\nsamples = 23.0%\nvalue = [0.928, 0.072]", fillcolor="#e78b48"] ;
207 -> 208 ;
209 [label="HighBP <= 0.5\nentropy = 0.258\nsamples = 13.1%\nvalue = [0.956, 0.044]", fillcolor="#e68742"] ;
208 -> 209 ;
210 [label="Age <= 11.5\nentropy = 0.167\nsamples = 7.4%\nvalue = [0.975, 0.025]", fillcolor="#e6843e"] ;
209 -> 210 ;
211 [label="Stroke <= 0.5\nentropy = 0.13\nsamples = 6.0%\nvalue = [0.982, 0.018]", fillcolor="#e5833d"] ;
210 -> 211 ;
212 [label="Age <= 10.5\nentropy = 0.124\nsamples = 5.9%\nvalue = [0.983, 0.017]", fillcolor="#e5833c"] ;
211 -> 212 ;
213 [label="Diabetes_bin <= 0.5\nentropy = 0.107\nsamples = 4.6%\nvalue = [0.986, 0.014]", fillcolor="#e5833c"] ;
212 -> 213 ;
214 [label="entropy = 0.101\nsamples = 4.4%\nvalue = [0.987, 0.013]", fillcolor="#e5833c"] ;
213 -> 214 ;
215 [label="entropy = 0.248\nsamples = 0.2%\nvalue = [0.959, 0.041]", fillcolor="#e68642"] ;
213 -> 215 ;
216 [label="Smoker <= 0.5\nentropy = 0.177\nsamples = 1.3%\nvalue = [0.973, 0.027]", fillcolor="#e6843e"] ;
212 -> 216 ;
217 [label="entropy = 0.125\nsamples = 0.7%\nvalue = [0.983, 0.017]", fillcolor="#e5833c"] ;
216 -> 217 ;
218 [label="entropy = 0.236\nsamples = 0.6%\nvalue = [0.961, 0.039]", fillcolor="#e68641"] ;
216 -> 218 ;
219 [label="Income <= 6.5\nentropy = 0.53\nsamples = 0.1%\nvalue = [0.88, 0.12]", fillcolor="#e99254"] ;
211 -> 219 ;
220 [label="Diabetes_bin <= 0.5\nentropy = 0.704\nsamples = 0.0%\nvalue = [0.809, 0.191]", fillcolor="#eb9f68"] ;
219 -> 220 ;
221 [label="entropy = 0.592\nsamples = 0.0%\nvalue = [0.857, 0.143]", fillcolor="#e9965a"] ;
220 -> 221 ;
222 [label="entropy = 0.98\nsamples = 0.0%\nvalue = [0.583, 0.417]", fillcolor="#f8dbc6"] ;
220 -> 222 ;
223 [label="HighChol <= 0.5\nentropy = 0.27\nsamples = 0.0%\nvalue = [0.954, 0.046]", fillcolor="#e68743"] ;
219 -> 223 ;
224 [label="entropy = 0.0\nsamples = 0.0%\nvalue = [1.0, 0.0]", fillcolor="#e58139"] ;
223 -> 224 ;
225 [label="entropy = 0.414\nsamples = 0.0%\nvalue = [0.917, 0.083]", fillcolor="#e78c4b"] ;
223 -> 225 ;
226 [label="Stroke <= 0.5\nentropy = 0.298\nsamples = 1.4%\nvalue = [0.947, 0.053]", fillcolor="#e68844"] ;
210 -> 226 ;
227 [label="Age <= 12.5\nentropy = 0.275\nsamples = 1.4%\nvalue = [0.953, 0.047]", fillcolor="#e68743"] ;
226 -> 227 ;
228 [label="GenHlth <= 1.5\nentropy = 0.214\nsamples = 0.7%\nvalue = [0.966, 0.034]", fillcolor="#e68540"] ;
227 -> 228 ;
229 [label="entropy = 0.125\nsamples = 0.3%\nvalue = [0.983, 0.017]", fillcolor="#e5833c"] ;
228 -> 229 ;
230 [label="entropy = 0.259\nsamples = 0.5%\nvalue = [0.956, 0.044]", fillcolor="#e68742"] ;
228 -> 230 ;
231 [label="Diabetes_bin <= 0.5\nentropy = 0.331\nsamples = 0.7%\nvalue = [0.939, 0.061]", fillcolor="#e78946"] ;
227 -> 231 ;
232 [label="entropy = 0.307\nsamples = 0.6%\nvalue = [0.945, 0.055]", fillcolor="#e78845"] ;
231 -> 232 ;
233 [label="entropy = 0.57\nsamples = 0.1%\nvalue = [0.865, 0.135]", fillcolor="#e99558"] ;
231 -> 233 ;
234 [label="MentHlth_bin <= 1.5\nentropy = 0.769\nsamples = 0.0%\nvalue = [0.775, 0.225]", fillcolor="#eda672"] ;
226 -> 234 ;
235 [label="Education <= 4.5\nentropy = 0.722\nsamples = 0.0%\nvalue = [0.8, 0.2]", fillcolor="#eca06a"] ;
234 -> 235 ;
236 [label="entropy = 0.216\nsamples = 0.0%\nvalue = [0.966, 0.034]", fillcolor="#e68640"] ;
235 -> 236 ;
237 [label="entropy = 0.863\nsamples = 0.0%\nvalue = [0.714, 0.286]", fillcolor="#efb388"] ;
235 -> 237 ;
238 [label="entropy = 0.811\nsamples = 0.0%\nvalue = [0.25, 0.75]", fillcolor="#7bbeee"] ;
234 -> 238 ;
239 [label="Age <= 10.5\nentropy = 0.359\nsamples = 5.7%\nvalue = [0.932, 0.068]", fillcolor="#e78a47"] ;
209 -> 239 ;
240 [label="Stroke <= 0.5\nentropy = 0.247\nsamples = 2.7%\nvalue = [0.959, 0.041]", fillcolor="#e68641"] ;
239 -> 240 ;
241 [label="HighChol <= 0.5\nentropy = 0.231\nsamples = 2.6%\nvalue = [0.962, 0.038]", fillcolor="#e68641"] ;
240 -> 241 ;
242 [label="Income <= 3.5\nentropy = 0.155\nsamples = 1.2%\nvalue = [0.977, 0.023]", fillcolor="#e6843e"] ;
241 -> 242 ;
243 [label="entropy = 0.324\nsamples = 0.1%\nvalue = [0.941, 0.059]", fillcolor="#e78945"] ;
242 -> 243 ;
244 [label="entropy = 0.137\nsamples = 1.1%\nvalue = [0.981, 0.019]", fillcolor="#e6833d"] ;
242 -> 244 ;
245 [label="PhysHlth_bin <= 0.5\nentropy = 0.288\nsamples = 1.4%\nvalue = [0.95, 0.05]", fillcolor="#e68843"] ;
241 -> 245 ;
246 [label="entropy = 0.271\nsamples = 1.3%\nvalue = [0.954, 0.046]", fillcolor="#e68743"] ;
245 -> 246 ;
247 [label="entropy = 0.571\nsamples = 0.1%\nvalue = [0.865, 0.135]", fillcolor="#e99558"] ;
245 -> 247 ;
248 [label="BMI_bin <= 2.5\nentropy = 0.695\nsamples = 0.1%\nvalue = [0.813, 0.187]", fillcolor="#eb9e67"] ;
240 -> 248 ;
249 [label="DiffWalk <= 0.5\nentropy = 0.806\nsamples = 0.0%\nvalue = [0.753, 0.247]", fillcolor="#eeaa7a"] ;
248 -> 249 ;
250 [label="entropy = 0.65\nsamples = 0.0%\nvalue = [0.833, 0.167]", fillcolor="#ea9a61"] ;
249 -> 250 ;
251 [label="entropy = 0.998\nsamples = 0.0%\nvalue = [0.526, 0.474]", fillcolor="#fcf2eb"] ;
249 -> 251 ;
252 [label="Age <= 9.5\nentropy = 0.469\nsamples = 0.0%\nvalue = [0.9, 0.1]", fillcolor="#e88f4f"] ;
248 -> 252 ;
253 [label="entropy = 0.0\nsamples = 0.0%\nvalue = [1.0, 0.0]", fillcolor="#e58139"] ;
252 -> 253 ;
254 [label="entropy = 0.614\nsamples = 0.0%\nvalue = [0.848, 0.152]", fillcolor="#ea985c"] ;
252 -> 254 ;
255 [label="HighChol <= 0.5\nentropy = 0.443\nsamples = 3.0%\nvalue = [0.908, 0.092]", fillcolor="#e88e4d"] ;
239 -> 255 ;
256 [label="Stroke <= 0.5\nentropy = 0.313\nsamples = 1.2%\nvalue = [0.944, 0.056]", fillcolor="#e78945"] ;
255 -> 256 ;
257 [label="Age <= 12.5\nentropy = 0.287\nsamples = 1.2%\nvalue = [0.95, 0.05]", fillcolor="#e68843"] ;
256 -> 257 ;
258 [label="entropy = 0.229\nsamples = 0.8%\nvalue = [0.963, 0.037]", fillcolor="#e68641"] ;
257 -> 258 ;
259 [label="entropy = 0.387\nsamples = 0.4%\nvalue = [0.924, 0.076]", fillcolor="#e78b49"] ;
257 -> 259 ;
260 [label="Education <= 2.5\nentropy = 0.737\nsamples = 0.0%\nvalue = [0.792, 0.208]", fillcolor="#eca26d"] ;
256 -> 260 ;
261 [label="entropy = 0.971\nsamples = 0.0%\nvalue = [0.4, 0.6]", fillcolor="#bddef6"] ;
260 -> 261 ;
262 [label="entropy = 0.696\nsamples = 0.0%\nvalue = [0.812, 0.188]", fillcolor="#eb9e67"] ;
260 -> 262 ;
263 [label="Income <= 3.5\nentropy = 0.521\nsamples = 1.8%\nvalue = [0.883, 0.117]", fillcolor="#e89253"] ;
255 -> 263 ;
264 [label="DiffWalk <= 0.5\nentropy = 0.711\nsamples = 0.3%\nvalue = [0.806, 0.194]", fillcolor="#eb9f69"] ;
263 -> 264 ;
265 [label="entropy = 0.64\nsamples = 0.2%\nvalue = [0.838, 0.162]", fillcolor="#ea995f"] ;
264 -> 265 ;
266 [label="entropy = 0.871\nsamples = 0.1%\nvalue = [0.708, 0.292]", fillcolor="#f0b58b"] ;
264 -> 266 ;
267 [label="Age <= 12.5\nentropy = 0.476\nsamples = 1.5%\nvalue = [0.898, 0.102]", fillcolor="#e88f50"] ;
263 -> 267 ;
268 [label="entropy = 0.426\nsamples = 1.1%\nvalue = [0.913, 0.087]", fillcolor="#e78d4c"] ;
267 -> 268 ;
269 [label="entropy = 0.585\nsamples = 0.4%\nvalue = [0.86, 0.14]", fillcolor="#e99659"] ;
267 -> 269 ;
270 [label="Age <= 10.5\nentropy = 0.5\nsamples = 9.9%\nvalue = [0.89, 0.11]", fillcolor="#e89151"] ;
208 -> 270 ;
271 [label="HighChol <= 0.5\nentropy = 0.376\nsamples = 5.7%\nvalue = [0.927, 0.073]", fillcolor="#e78b49"] ;
270 -> 271 ;
272 [label="Stroke <= 0.5\nentropy = 0.247\nsamples = 3.0%\nvalue = [0.959, 0.041]", fillcolor="#e68641"] ;
271 -> 272 ;
273 [label="GenHlth <= 1.5\nentropy = 0.229\nsamples = 2.9%\nvalue = [0.963, 0.037]", fillcolor="#e68641"] ;
272 -> 273 ;
274 [label="CholCheck <= 0.5\nentropy = 0.133\nsamples = 1.1%\nvalue = [0.981, 0.019]", fillcolor="#e5833d"] ;
273 -> 274 ;
275 [label="entropy = 0.0\nsamples = 0.1%\nvalue = [1.0, 0.0]", fillcolor="#e58139"] ;
274 -> 275 ;
276 [label="entropy = 0.141\nsamples = 1.0%\nvalue = [0.98, 0.02]", fillcolor="#e6843d"] ;
274 -> 276 ;
277 [label="Diabetes_bin <= 0.5\nentropy = 0.277\nsamples = 1.9%\nvalue = [0.952, 0.048]", fillcolor="#e68743"] ;
273 -> 277 ;
278 [label="entropy = 0.253\nsamples = 1.7%\nvalue = [0.958, 0.042]", fillcolor="#e68742"] ;
277 -> 278 ;
279 [label="entropy = 0.457\nsamples = 0.2%\nvalue = [0.904, 0.096]", fillcolor="#e88e4e"] ;
277 -> 279 ;
280 [label="Education <= 5.5\nentropy = 0.849\nsamples = 0.0%\nvalue = [0.724, 0.276]", fillcolor="#efb184"] ;
272 -> 280 ;
281 [label="Veggies <= 0.5\nentropy = 0.738\nsamples = 0.0%\nvalue = [0.792, 0.208]", fillcolor="#eca26d"] ;
280 -> 281 ;
282 [label="entropy = 0.991\nsamples = 0.0%\nvalue = [0.556, 0.444]", fillcolor="#fae6d7"] ;
281 -> 282 ;
283 [label="entropy = 0.619\nsamples = 0.0%\nvalue = [0.846, 0.154]", fillcolor="#ea985d"] ;
281 -> 283 ;
284 [label="HighBP <= 0.5\nentropy = 0.925\nsamples = 0.0%\nvalue = [0.66, 0.34]", fillcolor="#f2c29f"] ;
280 -> 284 ;
285 [label="entropy = 0.811\nsamples = 0.0%\nvalue = [0.75, 0.25]", fillcolor="#eeab7b"] ;
284 -> 285 ;
286 [label="entropy = 0.983\nsamples = 0.0%\nvalue = [0.577, 0.423]", fillcolor="#f8ddca"] ;
284 -> 286 ;
287 [label="HighBP <= 0.5\nentropy = 0.491\nsamples = 2.8%\nvalue = [0.893, 0.107]", fillcolor="#e89051"] ;
271 -> 287 ;
288 [label="GenHlth <= 1.5\nentropy = 0.357\nsamples = 1.2%\nvalue = [0.932, 0.068]", fillcolor="#e78a47"] ;
287 -> 288 ;
289 [label="AnyHealthcare <= 0.5\nentropy = 0.266\nsamples = 0.4%\nvalue = [0.955, 0.045]", fillcolor="#e68742"] ;
288 -> 289 ;
290 [label="entropy = 0.672\nsamples = 0.0%\nvalue = [0.824, 0.176]", fillcolor="#eb9c63"] ;
289 -> 290 ;
291 [label="entropy = 0.254\nsamples = 0.4%\nvalue = [0.958, 0.042]", fillcolor="#e68742"] ;
289 -> 291 ;
292 [label="Age <= 9.5\nentropy = 0.396\nsamples = 0.8%\nvalue = [0.922, 0.078]", fillcolor="#e78c4a"] ;
288 -> 292 ;
293 [label="entropy = 0.338\nsamples = 0.4%\nvalue = [0.937, 0.063]", fillcolor="#e78946"] ;
292 -> 293 ;
294 [label="entropy = 0.453\nsamples = 0.4%\nvalue = [0.905, 0.095]", fillcolor="#e88e4e"] ;
292 -> 294 ;
295 [label="Age <= 9.5\nentropy = 0.579\nsamples = 1.5%\nvalue = [0.862, 0.138]", fillcolor="#e99559"] ;
287 -> 295 ;
296 [label="Income <= 5.5\nentropy = 0.486\nsamples = 0.7%\nvalue = [0.894, 0.106]", fillcolor="#e89050"] ;
295 -> 296 ;
297 [label="entropy = 0.681\nsamples = 0.1%\nvalue = [0.819, 0.181]", fillcolor="#eb9d65"] ;
296 -> 297 ;
298 [label="entropy = 0.44\nsamples = 0.6%\nvalue = [0.909, 0.091]", fillcolor="#e88e4d"] ;
296 -> 298 ;
299 [label="Stroke <= 0.5\nentropy = 0.645\nsamples = 0.8%\nvalue = [0.835, 0.165]", fillcolor="#ea9a60"] ;
295 -> 299 ;
300 [label="entropy = 0.629\nsamples = 0.8%\nvalue = [0.842, 0.158]", fillcolor="#ea995e"] ;
299 -> 300 ;
301 [label="entropy = 0.913\nsamples = 0.0%\nvalue = [0.671, 0.329]", fillcolor="#f2bf9a"] ;
299 -> 301 ;
302 [label="HighChol <= 0.5\nentropy = 0.637\nsamples = 4.2%\nvalue = [0.839, 0.161]", fillcolor="#ea995f"] ;
270 -> 302 ;
303 [label="Age <= 11.5\nentropy = 0.516\nsamples = 2.1%\nvalue = [0.885, 0.115]", fillcolor="#e89153"] ;
302 -> 303 ;
304 [label="Stroke <= 0.5\nentropy = 0.406\nsamples = 0.9%\nvalue = [0.919, 0.081]", fillcolor="#e78c4a"] ;
303 -> 304 ;
305 [label="GenHlth <= 1.5\nentropy = 0.391\nsamples = 0.9%\nvalue = [0.923, 0.077]", fillcolor="#e78b49"] ;
304 -> 305 ;
306 [label="entropy = 0.307\nsamples = 0.3%\nvalue = [0.945, 0.055]", fillcolor="#e78845"] ;
305 -> 306 ;
307 [label="entropy = 0.437\nsamples = 0.6%\nvalue = [0.91, 0.09]", fillcolor="#e88e4d"] ;
305 -> 307 ;
308 [label="BMI_bin <= 2.5\nentropy = 0.761\nsamples = 0.0%\nvalue = [0.78, 0.22]", fillcolor="#eca571"] ;
304 -> 308 ;
309 [label="entropy = 0.878\nsamples = 0.0%\nvalue = [0.703, 0.297]", fillcolor="#f0b68d"] ;
308 -> 309 ;
310 [label="entropy = 0.439\nsamples = 0.0%\nvalue = [0.909, 0.091]", fillcolor="#e88e4d"] ;
308 -> 310 ;
311 [label="GenHlth <= 1.5\nentropy = 0.594\nsamples = 1.1%\nvalue = [0.856, 0.144]", fillcolor="#e9965a"] ;
303 -> 311 ;
312 [label="HighBP <= 0.5\nentropy = 0.487\nsamples = 0.3%\nvalue = [0.894, 0.106]", fillcolor="#e89050"] ;
311 -> 312 ;
313 [label="entropy = 0.386\nsamples = 0.2%\nvalue = [0.925, 0.075]", fillcolor="#e78b49"] ;
312 -> 313 ;
314 [label="entropy = 0.642\nsamples = 0.1%\nvalue = [0.837, 0.163]", fillcolor="#ea9a60"] ;
312 -> 314 ;
315 [label="Diabetes_bin <= 0.5\nentropy = 0.636\nsamples = 0.8%\nvalue = [0.839, 0.161]", fillcolor="#ea995f"] ;
311 -> 315 ;
316 [label="entropy = 0.607\nsamples = 0.7%\nvalue = [0.851, 0.149]", fillcolor="#ea975c"] ;
315 -> 316 ;
317 [label="entropy = 0.767\nsamples = 0.1%\nvalue = [0.776, 0.224]", fillcolor="#eca572"] ;
315 -> 317 ;
318 [label="HighBP <= 0.5\nentropy = 0.734\nsamples = 2.1%\nvalue = [0.794, 0.206]", fillcolor="#eca26c"] ;
302 -> 318 ;
319 [label="Age <= 11.5\nentropy = 0.577\nsamples = 0.7%\nvalue = [0.863, 0.137]", fillcolor="#e99559"] ;
318 -> 319 ;
320 [label="Diabetes_bin <= 0.5\nentropy = 0.488\nsamples = 0.4%\nvalue = [0.894, 0.106]", fillcolor="#e89050"] ;
319 -> 320 ;
321 [label="entropy = 0.45\nsamples = 0.3%\nvalue = [0.906, 0.094]", fillcolor="#e88e4e"] ;
320 -> 321 ;
322 [label="entropy = 0.717\nsamples = 0.0%\nvalue = [0.802, 0.198]", fillcolor="#eba06a"] ;
320 -> 322 ;
323 [label="NoDocbcCost <= 0.5\nentropy = 0.66\nsamples = 0.3%\nvalue = [0.829, 0.171]", fillcolor="#ea9b62"] ;
319 -> 323 ;
324 [label="entropy = 0.649\nsamples = 0.3%\nvalue = [0.834, 0.166]", fillcolor="#ea9a60"] ;
323 -> 324 ;
325 [label="entropy = 1.0\nsamples = 0.0%\nvalue = [0.5, 0.5]", fillcolor="#ffffff"] ;
323 -> 325 ;
326 [label="Age <= 12.5\nentropy = 0.796\nsamples = 1.4%\nvalue = [0.759, 0.241]", fillcolor="#eda978"] ;
318 -> 326 ;
327 [label="GenHlth <= 1.5\nentropy = 0.752\nsamples = 1.0%\nvalue = [0.784, 0.216]", fillcolor="#eca46f"] ;
326 -> 327 ;
328 [label="entropy = 0.62\nsamples = 0.2%\nvalue = [0.846, 0.154]", fillcolor="#ea985d"] ;
327 -> 328 ;
329 [label="entropy = 0.784\nsamples = 0.8%\nvalue = [0.767, 0.233]", fillcolor="#eda775"] ;
327 -> 329 ;
330 [label="Stroke <= 0.5\nentropy = 0.898\nsamples = 0.4%\nvalue = [0.686, 0.314]", fillcolor="#f1bb94"] ;
326 -> 330 ;
331 [label="entropy = 0.875\nsamples = 0.3%\nvalue = [0.705, 0.295]", fillcolor="#f0b68c"] ;
330 -> 331 ;
332 [label="entropy = 0.999\nsamples = 0.0%\nvalue = [0.484, 0.516]", fillcolor="#f3f9fd"] ;
330 -> 332 ;
333 [label="Sex <= 0.5\nentropy = 0.646\nsamples = 15.3%\nvalue = [0.835, 0.165]", fillcolor="#ea9a60"] ;
207 -> 333 ;
334 [label="Stroke <= 0.5\nentropy = 0.521\nsamples = 8.5%\nvalue = [0.883, 0.117]", fillcolor="#e89253"] ;
333 -> 334 ;
335 [label="HighBP <= 0.5\nentropy = 0.489\nsamples = 8.0%\nvalue = [0.894, 0.106]", fillcolor="#e89051"] ;
334 -> 335 ;
336 [label="Age <= 11.5\nentropy = 0.338\nsamples = 2.8%\nvalue = [0.937, 0.063]", fillcolor="#e78946"] ;
335 -> 336 ;
337 [label="DiffWalk <= 0.5\nentropy = 0.277\nsamples = 2.1%\nvalue = [0.952, 0.048]", fillcolor="#e68743"] ;
336 -> 337 ;
338 [label="Smoker <= 0.5\nentropy = 0.244\nsamples = 1.7%\nvalue = [0.96, 0.04]", fillcolor="#e68641"] ;
337 -> 338 ;
339 [label="entropy = 0.187\nsamples = 0.9%\nvalue = [0.972, 0.028]", fillcolor="#e6853f"] ;
338 -> 339 ;
340 [label="entropy = 0.309\nsamples = 0.7%\nvalue = [0.945, 0.055]", fillcolor="#e78845"] ;
338 -> 340 ;
341 [label="Education <= 5.5\nentropy = 0.402\nsamples = 0.4%\nvalue = [0.92, 0.08]", fillcolor="#e78c4a"] ;
337 -> 341 ;
342 [label="entropy = 0.476\nsamples = 0.3%\nvalue = [0.898, 0.102]", fillcolor="#e88f50"] ;
341 -> 342 ;
343 [label="entropy = 0.202\nsamples = 0.1%\nvalue = [0.968, 0.032]", fillcolor="#e6853f"] ;
341 -> 343 ;
344 [label="Diabetes_bin <= 0.5\nentropy = 0.483\nsamples = 0.7%\nvalue = [0.896, 0.104]", fillcolor="#e89050"] ;
336 -> 344 ;
345 [label="BMI_bin <= 1.5\nentropy = 0.445\nsamples = 0.6%\nvalue = [0.907, 0.093]", fillcolor="#e88e4d"] ;
344 -> 345 ;
346 [label="entropy = 0.39\nsamples = 0.3%\nvalue = [0.923, 0.077]", fillcolor="#e78b49"] ;
345 -> 346 ;
347 [label="entropy = 0.492\nsamples = 0.3%\nvalue = [0.893, 0.107]", fillcolor="#e89051"] ;
345 -> 347 ;
348 [label="PhysActivity <= 0.5\nentropy = 0.664\nsamples = 0.1%\nvalue = [0.827, 0.173]", fillcolor="#ea9b62"] ;
344 -> 348 ;
349 [label="entropy = 0.817\nsamples = 0.0%\nvalue = [0.746, 0.254]", fillcolor="#eeac7c"] ;
348 -> 349 ;
350 [label="entropy = 0.569\nsamples = 0.1%\nvalue = [0.866, 0.134]", fillcolor="#e99558"] ;
348 -> 350 ;
351 [label="Age <= 10.5\nentropy = 0.557\nsamples = 5.2%\nvalue = [0.87, 0.13]", fillcolor="#e99457"] ;
335 -> 351 ;
352 [label="HighChol <= 0.5\nentropy = 0.448\nsamples = 2.3%\nvalue = [0.906, 0.094]", fillcolor="#e88e4d"] ;
351 -> 352 ;
353 [label="Education <= 5.5\nentropy = 0.323\nsamples = 0.8%\nvalue = [0.941, 0.059]", fillcolor="#e78945"] ;
352 -> 353 ;
354 [label="entropy = 0.365\nsamples = 0.5%\nvalue = [0.93, 0.07]", fillcolor="#e78a48"] ;
353 -> 354 ;
355 [label="entropy = 0.236\nsamples = 0.3%\nvalue = [0.961, 0.039]", fillcolor="#e68641"] ;
353 -> 355 ;
356 [label="Smoker <= 0.5\nentropy = 0.507\nsamples = 1.5%\nvalue = [0.888, 0.112]", fillcolor="#e89152"] ;
352 -> 356 ;
357 [label="entropy = 0.413\nsamples = 0.8%\nvalue = [0.917, 0.083]", fillcolor="#e78c4b"] ;
356 -> 357 ;
358 [label="entropy = 0.606\nsamples = 0.7%\nvalue = [0.852, 0.148]", fillcolor="#ea975c"] ;
356 -> 358 ;
359 [label="HighChol <= 0.5\nentropy = 0.634\nsamples = 2.8%\nvalue = [0.84, 0.16]", fillcolor="#ea995f"] ;
351 -> 359 ;
360 [label="Income <= 5.5\nentropy = 0.517\nsamples = 1.0%\nvalue = [0.884, 0.116]", fillcolor="#e89153"] ;
359 -> 360 ;
361 [label="entropy = 0.554\nsamples = 0.6%\nvalue = [0.871, 0.129]", fillcolor="#e99456"] ;
360 -> 361 ;
362 [label="entropy = 0.451\nsamples = 0.4%\nvalue = [0.905, 0.095]", fillcolor="#e88e4e"] ;
360 -> 362 ;
363 [label="Age <= 12.5\nentropy = 0.691\nsamples = 1.8%\nvalue = [0.815, 0.185]", fillcolor="#eb9e66"] ;
359 -> 363 ;
364 [label="entropy = 0.633\nsamples = 1.2%\nvalue = [0.84, 0.16]", fillcolor="#ea995f"] ;
363 -> 364 ;
365 [label="entropy = 0.795\nsamples = 0.6%\nvalue = [0.76, 0.24]", fillcolor="#eda978"] ;
363 -> 365 ;
366 [label="DiffWalk <= 0.5\nentropy = 0.864\nsamples = 0.5%\nvalue = [0.714, 0.286]", fillcolor="#efb488"] ;
334 -> 366 ;
367 [label="HighChol <= 0.5\nentropy = 0.795\nsamples = 0.3%\nvalue = [0.76, 0.24]", fillcolor="#eda978"] ;
366 -> 367 ;
368 [label="PhysHlth_bin <= 1.5\nentropy = 0.655\nsamples = 0.1%\nvalue = [0.831, 0.169]", fillcolor="#ea9b61"] ;
367 -> 368 ;
369 [label="HvyAlcoholConsump <= 0.5\nentropy = 0.63\nsamples = 0.1%\nvalue = [0.842, 0.158]", fillcolor="#ea995e"] ;
368 -> 369 ;
370 [label="entropy = 0.644\nsamples = 0.1%\nvalue = [0.836, 0.164]", fillcolor="#ea9a60"] ;
369 -> 370 ;
371 [label="entropy = 0.0\nsamples = 0.0%\nvalue = [1.0, 0.0]", fillcolor="#e58139"] ;
369 -> 371 ;
372 [label="Income <= 4.0\nentropy = 0.971\nsamples = 0.0%\nvalue = [0.6, 0.4]", fillcolor="#f6d5bd"] ;
368 -> 372 ;
373 [label="entropy = 0.811\nsamples = 0.0%\nvalue = [0.25, 0.75]", fillcolor="#7bbeee"] ;
372 -> 373 ;
374 [label="entropy = 0.65\nsamples = 0.0%\nvalue = [0.833, 0.167]", fillcolor="#ea9a61"] ;
372 -> 374 ;
375 [label="Income <= 5.5\nentropy = 0.858\nsamples = 0.2%\nvalue = [0.718, 0.282]", fillcolor="#efb287"] ;
367 -> 375 ;
376 [label="MentHlth_bin <= 1.5\nentropy = 0.912\nsamples = 0.1%\nvalue = [0.673, 0.327]", fillcolor="#f2be99"] ;
375 -> 376 ;
377 [label="entropy = 0.926\nsamples = 0.1%\nvalue = [0.658, 0.342]", fillcolor="#f2c2a0"] ;
376 -> 377 ;
378 [label="entropy = 0.0\nsamples = 0.0%\nvalue = [1.0, 0.0]", fillcolor="#e58139"] ;
376 -> 378 ;
379 [label="Diabetes_bin <= 0.5\nentropy = 0.776\nsamples = 0.1%\nvalue = [0.771, 0.229]", fillcolor="#eda674"] ;
375 -> 379 ;
380 [label="entropy = 0.709\nsamples = 0.1%\nvalue = [0.806, 0.194]", fillcolor="#eb9f69"] ;
379 -> 380 ;
381 [label="entropy = 0.911\nsamples = 0.0%\nvalue = [0.674, 0.326]", fillcolor="#f2be99"] ;
379 -> 381 ;
382 [label="Diabetes_bin <= 0.5\nentropy = 0.937\nsamples = 0.2%\nvalue = [0.647, 0.353]", fillcolor="#f3c6a5"] ;
366 -> 382 ;
383 [label="AnyHealthcare <= 0.5\nentropy = 0.879\nsamples = 0.1%\nvalue = [0.702, 0.298]", fillcolor="#f0b78d"] ;
382 -> 383 ;
384 [label="Education <= 3.5\nentropy = 0.722\nsamples = 0.0%\nvalue = [0.2, 0.8]", fillcolor="#6ab6ec"] ;
383 -> 384 ;
385 [label="entropy = 1.0\nsamples = 0.0%\nvalue = [0.5, 0.5]", fillcolor="#ffffff"] ;
384 -> 385 ;
386 [label="entropy = 0.0\nsamples = 0.0%\nvalue = [0.0, 1.0]", fillcolor="#399de5"] ;
384 -> 386 ;
387 [label="Smoker <= 0.5\nentropy = 0.854\nsamples = 0.1%\nvalue = [0.721, 0.279]", fillcolor="#efb286"] ;
383 -> 387 ;
388 [label="entropy = 0.774\nsamples = 0.1%\nvalue = [0.772, 0.228]", fillcolor="#eda673"] ;
387 -> 388 ;
389 [label="entropy = 0.918\nsamples = 0.1%\nvalue = [0.667, 0.333]", fillcolor="#f2c09c"] ;
387 -> 389 ;
390 [label="NoDocbcCost <= 0.5\nentropy = 0.994\nsamples = 0.1%\nvalue = [0.544, 0.456]", fillcolor="#fbebdf"] ;
382 -> 390 ;
391 [label="Income <= 7.5\nentropy = 0.984\nsamples = 0.1%\nvalue = [0.575, 0.425]", fillcolor="#f8decc"] ;
390 -> 391 ;
392 [label="entropy = 0.977\nsamples = 0.1%\nvalue = [0.589, 0.411]", fillcolor="#f7d9c3"] ;
391 -> 392 ;
393 [label="entropy = 0.722\nsamples = 0.0%\nvalue = [0.2, 0.8]", fillcolor="#6ab6ec"] ;
391 -> 393 ;
394 [label="PhysHlth_bin <= 1.0\nentropy = 0.779\nsamples = 0.0%\nvalue = [0.231, 0.769]", fillcolor="#74baed"] ;
390 -> 394 ;
395 [label="entropy = 0.0\nsamples = 0.0%\nvalue = [0.0, 1.0]", fillcolor="#399de5"] ;
394 -> 395 ;
396 [label="entropy = 0.971\nsamples = 0.0%\nvalue = [0.6, 0.4]", fillcolor="#f6d5bd"] ;
394 -> 396 ;
397 [label="HighChol <= 0.5\nentropy = 0.77\nsamples = 6.8%\nvalue = [0.775, 0.225]", fillcolor="#eda673"] ;
333 -> 397 ;
398 [label="Age <= 10.5\nentropy = 0.62\nsamples = 2.9%\nvalue = [0.846, 0.154]", fillcolor="#ea985d"] ;
397 -> 398 ;
399 [label="Stroke <= 0.5\nentropy = 0.494\nsamples = 1.5%\nvalue = [0.892, 0.108]", fillcolor="#e89051"] ;
398 -> 399 ;
400 [label="Diabetes_bin <= 0.5\nentropy = 0.467\nsamples = 1.5%\nvalue = [0.901, 0.099]", fillcolor="#e88f4f"] ;
399 -> 400 ;
401 [label="Smoker <= 0.5\nentropy = 0.417\nsamples = 1.2%\nvalue = [0.916, 0.084]", fillcolor="#e78d4b"] ;
400 -> 401 ;
402 [label="entropy = 0.338\nsamples = 0.5%\nvalue = [0.937, 0.063]", fillcolor="#e78946"] ;
401 -> 402 ;
403 [label="entropy = 0.467\nsamples = 0.7%\nvalue = [0.901, 0.099]", fillcolor="#e88f4f"] ;
401 -> 403 ;
404 [label="DiffWalk <= 0.5\nentropy = 0.62\nsamples = 0.3%\nvalue = [0.846, 0.154]", fillcolor="#ea985d"] ;
400 -> 404 ;
405 [label="entropy = 0.564\nsamples = 0.3%\nvalue = [0.868, 0.132]", fillcolor="#e99457"] ;
404 -> 405 ;
406 [label="entropy = 0.829\nsamples = 0.1%\nvalue = [0.738, 0.262]", fillcolor="#eeae7f"] ;
404 -> 406 ;
407 [label="Income <= 7.5\nentropy = 0.921\nsamples = 0.1%\nvalue = [0.664, 0.336]", fillcolor="#f2c19d"] ;
399 -> 407 ;
408 [label="Smoker <= 0.5\nentropy = 0.97\nsamples = 0.0%\nvalue = [0.602, 0.398]", fillcolor="#f6d4bc"] ;
407 -> 408 ;
409 [label="entropy = 0.868\nsamples = 0.0%\nvalue = [0.711, 0.289]", fillcolor="#f0b48a"] ;
408 -> 409 ;
410 [label="entropy = 0.999\nsamples = 0.0%\nvalue = [0.52, 0.48]", fillcolor="#fdf5f0"] ;
408 -> 410 ;
411 [label="Veggies <= 0.5\nentropy = 0.592\nsamples = 0.0%\nvalue = [0.857, 0.143]", fillcolor="#e9965a"] ;
407 -> 411 ;
412 [label="entropy = 0.0\nsamples = 0.0%\nvalue = [1.0, 0.0]", fillcolor="#e58139"] ;
411 -> 412 ;
413 [label="entropy = 0.722\nsamples = 0.0%\nvalue = [0.8, 0.2]", fillcolor="#eca06a"] ;
411 -> 413 ;
414 [label="Stroke <= 0.5\nentropy = 0.735\nsamples = 1.3%\nvalue = [0.794, 0.206]", fillcolor="#eca26d"] ;
398 -> 414 ;
415 [label="Diabetes_bin <= 0.5\nentropy = 0.704\nsamples = 1.2%\nvalue = [0.809, 0.191]", fillcolor="#eb9f68"] ;
414 -> 415 ;
416 [label="Smoker <= 0.5\nentropy = 0.656\nsamples = 0.9%\nvalue = [0.831, 0.169]", fillcolor="#ea9b61"] ;
415 -> 416 ;
417 [label="entropy = 0.588\nsamples = 0.4%\nvalue = [0.859, 0.141]", fillcolor="#e9965a"] ;
416 -> 417 ;
418 [label="entropy = 0.695\nsamples = 0.6%\nvalue = [0.813, 0.187]", fillcolor="#eb9e67"] ;
416 -> 418 ;
419 [label="HighBP <= 0.5\nentropy = 0.822\nsamples = 0.3%\nvalue = [0.743, 0.257]", fillcolor="#eead7d"] ;
415 -> 419 ;
420 [label="entropy = 0.722\nsamples = 0.1%\nvalue = [0.8, 0.2]", fillcolor="#eca06a"] ;
419 -> 420 ;
421 [label="entropy = 0.864\nsamples = 0.2%\nvalue = [0.714, 0.286]", fillcolor="#efb488"] ;
419 -> 421 ;
422 [label="HvyAlcoholConsump <= 0.5\nentropy = 0.964\nsamples = 0.1%\nvalue = [0.611, 0.389]", fillcolor="#f6d1b7"] ;
414 -> 422 ;
423 [label="Fruits <= 0.5\nentropy = 0.972\nsamples = 0.1%\nvalue = [0.599, 0.401]", fillcolor="#f6d5be"] ;
422 -> 423 ;
424 [label="entropy = 0.876\nsamples = 0.0%\nvalue = [0.704, 0.296]", fillcolor="#f0b68c"] ;
423 -> 424 ;
425 [label="entropy = 0.995\nsamples = 0.1%\nvalue = [0.542, 0.458]", fillcolor="#fbebe0"] ;
423 -> 425 ;
426 [label="entropy = 0.0\nsamples = 0.0%\nvalue = [1.0, 0.0]", fillcolor="#e58139"] ;
422 -> 426 ;
427 [label="Age <= 10.5\nentropy = 0.852\nsamples = 3.9%\nvalue = [0.723, 0.277]", fillcolor="#efb185"] ;
397 -> 427 ;
428 [label="Age <= 9.5\nentropy = 0.77\nsamples = 2.1%\nvalue = [0.774, 0.226]", fillcolor="#eda673"] ;
427 -> 428 ;
429 [label="Stroke <= 0.5\nentropy = 0.699\nsamples = 1.0%\nvalue = [0.811, 0.189]", fillcolor="#eb9e67"] ;
428 -> 429 ;
430 [label="Income <= 7.5\nentropy = 0.681\nsamples = 1.0%\nvalue = [0.82, 0.18]", fillcolor="#eb9d65"] ;
429 -> 430 ;
431 [label="entropy = 0.729\nsamples = 0.6%\nvalue = [0.796, 0.204]", fillcolor="#eca16c"] ;
430 -> 431 ;
432 [label="entropy = 0.588\nsamples = 0.4%\nvalue = [0.858, 0.142]", fillcolor="#e9965a"] ;
430 -> 432 ;
433 [label="BMI_bin <= 2.5\nentropy = 0.943\nsamples = 0.0%\nvalue = [0.639, 0.361]", fillcolor="#f4c8a9"] ;
429 -> 433 ;
434 [label="entropy = 0.82\nsamples = 0.0%\nvalue = [0.745, 0.255]", fillcolor="#eeac7d"] ;
433 -> 434 ;
435 [label="entropy = 0.995\nsamples = 0.0%\nvalue = [0.54, 0.46]", fillcolor="#fbece2"] ;
433 -> 435 ;
436 [label="HighBP <= 0.5\nentropy = 0.828\nsamples = 1.1%\nvalue = [0.739, 0.261]", fillcolor="#eead7f"] ;
428 -> 436 ;
437 [label="Stroke <= 0.5\nentropy = 0.721\nsamples = 0.3%\nvalue = [0.8, 0.2]", fillcolor="#eba06a"] ;
436 -> 437 ;
438 [label="entropy = 0.7\nsamples = 0.3%\nvalue = [0.811, 0.189]", fillcolor="#eb9e67"] ;
437 -> 438 ;
439 [label="entropy = 0.994\nsamples = 0.0%\nvalue = [0.545, 0.455]", fillcolor="#fbeade"] ;
437 -> 439 ;
440 [label="Smoker <= 0.5\nentropy = 0.858\nsamples = 0.8%\nvalue = [0.718, 0.282]", fillcolor="#efb287"] ;
436 -> 440 ;
441 [label="entropy = 0.805\nsamples = 0.3%\nvalue = [0.754, 0.246]", fillcolor="#edaa7a"] ;
440 -> 441 ;
442 [label="entropy = 0.882\nsamples = 0.5%\nvalue = [0.699, 0.301]", fillcolor="#f0b78e"] ;
440 -> 442 ;
443 [label="Stroke <= 0.5\nentropy = 0.923\nsamples = 1.8%\nvalue = [0.662, 0.338]", fillcolor="#f2c19e"] ;
427 -> 443 ;
444 [label="Smoker <= 0.5\nentropy = 0.909\nsamples = 1.6%\nvalue = [0.676, 0.324]", fillcolor="#f1be98"] ;
443 -> 444 ;
445 [label="Age <= 11.5\nentropy = 0.857\nsamples = 0.6%\nvalue = [0.719, 0.281]", fillcolor="#efb286"] ;
444 -> 445 ;
446 [label="entropy = 0.768\nsamples = 0.3%\nvalue = [0.776, 0.224]", fillcolor="#eda572"] ;
445 -> 446 ;
447 [label="entropy = 0.909\nsamples = 0.3%\nvalue = [0.676, 0.324]", fillcolor="#f1bd98"] ;
445 -> 447 ;
448 [label="HighBP <= 0.5\nentropy = 0.933\nsamples = 1.0%\nvalue = [0.651, 0.349]", fillcolor="#f3c5a3"] ;
444 -> 448 ;
449 [label="entropy = 0.879\nsamples = 0.2%\nvalue = [0.701, 0.299]", fillcolor="#f0b78d"] ;
448 -> 449 ;
450 [label="entropy = 0.946\nsamples = 0.8%\nvalue = [0.636, 0.364]", fillcolor="#f4c9aa"] ;
448 -> 450 ;
451 [label="Income <= 4.5\nentropy = 0.995\nsamples = 0.2%\nvalue = [0.542, 0.458]", fillcolor="#fbece1"] ;
443 -> 451 ;
452 [label="BMI_bin <= 1.5\nentropy = 0.988\nsamples = 0.0%\nvalue = [0.437, 0.563]", fillcolor="#d3e9f9"] ;
451 -> 452 ;
453 [label="entropy = 0.946\nsamples = 0.0%\nvalue = [0.636, 0.364]", fillcolor="#f4c9aa"] ;
452 -> 453 ;
454 [label="entropy = 0.95\nsamples = 0.0%\nvalue = [0.369, 0.631]", fillcolor="#add6f4"] ;
452 -> 454 ;
455 [label="Diabetes_bin <= 0.5\nentropy = 0.984\nsamples = 0.1%\nvalue = [0.573, 0.427]", fillcolor="#f8dfcc"] ;
451 -> 455 ;
456 [label="entropy = 0.96\nsamples = 0.1%\nvalue = [0.617, 0.383]", fillcolor="#f5cfb4"] ;
455 -> 456 ;
457 [label="entropy = 0.999\nsamples = 0.0%\nvalue = [0.484, 0.516]", fillcolor="#f3f9fd"] ;
455 -> 457 ;
458 [label="Age <= 8.5\nentropy = 0.81\nsamples = 17.2%\nvalue = [0.751, 0.249]", fillcolor="#eeab7b"] ;
0 -> 458 [labeldistance=2.5, labelangle=45, headlabel="False"] ;
459 [label="Stroke <= 0.5\nentropy = 0.611\nsamples = 7.3%\nvalue = [0.849, 0.151]", fillcolor="#ea975c"] ;
458 -> 459 ;
460 [label="HighBP <= 0.5\nentropy = 0.549\nsamples = 6.7%\nvalue = [0.873, 0.127]", fillcolor="#e99356"] ;
459 -> 460 ;
461 [label="Age <= 5.5\nentropy = 0.355\nsamples = 3.1%\nvalue = [0.933, 0.067]", fillcolor="#e78a47"] ;
460 -> 461 ;
462 [label="DiffWalk <= 0.5\nentropy = 0.194\nsamples = 1.2%\nvalue = [0.97, 0.03]", fillcolor="#e6853f"] ;
461 -> 462 ;
463 [label="Income <= 6.5\nentropy = 0.134\nsamples = 0.9%\nvalue = [0.981, 0.019]", fillcolor="#e5833d"] ;
462 -> 463 ;
464 [label="Smoker <= 0.5\nentropy = 0.166\nsamples = 0.6%\nvalue = [0.976, 0.024]", fillcolor="#e6843e"] ;
463 -> 464 ;
465 [label="AnyHealthcare <= 0.5\nentropy = 0.105\nsamples = 0.3%\nvalue = [0.986, 0.014]", fillcolor="#e5833c"] ;
464 -> 465 ;
466 [label="entropy = 0.0\nsamples = 0.1%\nvalue = [1.0, 0.0]", fillcolor="#e58139"] ;
465 -> 466 ;
467 [label="entropy = 0.13\nsamples = 0.2%\nvalue = [0.982, 0.018]", fillcolor="#e5833d"] ;
465 -> 467 ;
468 [label="Education <= 3.5\nentropy = 0.226\nsamples = 0.3%\nvalue = [0.964, 0.036]", fillcolor="#e68640"] ;
464 -> 468 ;
469 [label="entropy = 0.41\nsamples = 0.0%\nvalue = [0.918, 0.082]", fillcolor="#e78c4b"] ;
468 -> 469 ;
470 [label="entropy = 0.187\nsamples = 0.2%\nvalue = [0.971, 0.029]", fillcolor="#e6853f"] ;
468 -> 470 ;
471 [label="NoDocbcCost <= 0.5\nentropy = 0.058\nsamples = 0.3%\nvalue = [0.993, 0.007]", fillcolor="#e5823a"] ;
463 -> 471 ;
472 [label="HvyAlcoholConsump <= 0.5\nentropy = 0.021\nsamples = 0.2%\nvalue = [0.998, 0.002]", fillcolor="#e58139"] ;
471 -> 472 ;
473 [label="entropy = 0.0\nsamples = 0.2%\nvalue = [1.0, 0.0]", fillcolor="#e58139"] ;
472 -> 473 ;
474 [label="entropy = 0.151\nsamples = 0.0%\nvalue = [0.978, 0.022]", fillcolor="#e6843d"] ;
472 -> 474 ;
475 [label="Income <= 7.5\nentropy = 0.209\nsamples = 0.0%\nvalue = [0.967, 0.033]", fillcolor="#e68540"] ;
471 -> 475 ;
476 [label="entropy = 0.0\nsamples = 0.0%\nvalue = [1.0, 0.0]", fillcolor="#e58139"] ;
475 -> 476 ;
477 [label="entropy = 0.391\nsamples = 0.0%\nvalue = [0.923, 0.077]", fillcolor="#e78c49"] ;
475 -> 477 ;
478 [label="Fruits <= 0.5\nentropy = 0.331\nsamples = 0.3%\nvalue = [0.939, 0.061]", fillcolor="#e78946"] ;
462 -> 478 ;
479 [label="PhysHlth_bin <= 1.5\nentropy = 0.408\nsamples = 0.1%\nvalue = [0.918, 0.082]", fillcolor="#e78c4b"] ;
478 -> 479 ;
480 [label="Smoker <= 0.5\nentropy = 0.279\nsamples = 0.1%\nvalue = [0.952, 0.048]", fillcolor="#e68743"] ;
479 -> 480 ;
481 [label="entropy = 0.485\nsamples = 0.0%\nvalue = [0.895, 0.105]", fillcolor="#e89050"] ;
480 -> 481 ;
482 [label="entropy = 0.0\nsamples = 0.0%\nvalue = [1.0, 0.0]", fillcolor="#e58139"] ;
480 -> 482 ;
483 [label="Smoker <= 0.5\nentropy = 0.556\nsamples = 0.1%\nvalue = [0.871, 0.129]", fillcolor="#e99456"] ;
479 -> 483 ;
484 [label="entropy = 0.206\nsamples = 0.0%\nvalue = [0.968, 0.032]", fillcolor="#e68540"] ;
483 -> 484 ;
485 [label="entropy = 0.645\nsamples = 0.0%\nvalue = [0.835, 0.165]", fillcolor="#ea9a60"] ;
483 -> 485 ;
486 [label="BMI_bin <= 1.5\nentropy = 0.266\nsamples = 0.2%\nvalue = [0.955, 0.045]", fillcolor="#e68742"] ;
478 -> 486 ;
487 [label="HighChol <= 0.5\nentropy = 0.081\nsamples = 0.0%\nvalue = [0.99, 0.01]", fillcolor="#e5823b"] ;
486 -> 487 ;
488 [label="entropy = 0.0\nsamples = 0.0%\nvalue = [1.0, 0.0]", fillcolor="#e58139"] ;
487 -> 488 ;
489 [label="entropy = 0.267\nsamples = 0.0%\nvalue = [0.955, 0.045]", fillcolor="#e68742"] ;
487 -> 489 ;
490 [label="Education <= 4.5\nentropy = 0.32\nsamples = 0.1%\nvalue = [0.942, 0.058]", fillcolor="#e78945"] ;
486 -> 490 ;
491 [label="entropy = 0.433\nsamples = 0.0%\nvalue = [0.911, 0.089]", fillcolor="#e88d4c"] ;
490 -> 491 ;
492 [label="entropy = 0.257\nsamples = 0.1%\nvalue = [0.957, 0.043]", fillcolor="#e68742"] ;
490 -> 492 ;
493 [label="GenHlth <= 4.5\nentropy = 0.441\nsamples = 1.9%\nvalue = [0.909, 0.091]", fillcolor="#e88e4d"] ;
461 -> 493 ;
494 [label="HighChol <= 0.5\nentropy = 0.375\nsamples = 1.4%\nvalue = [0.927, 0.073]", fillcolor="#e78b48"] ;
493 -> 494 ;
495 [label="Diabetes_bin <= 0.5\nentropy = 0.29\nsamples = 0.8%\nvalue = [0.949, 0.051]", fillcolor="#e68844"] ;
494 -> 495 ;
496 [label="MentHlth_bin <= 1.5\nentropy = 0.257\nsamples = 0.7%\nvalue = [0.957, 0.043]", fillcolor="#e68742"] ;
495 -> 496 ;
497 [label="entropy = 0.221\nsamples = 0.6%\nvalue = [0.965, 0.035]", fillcolor="#e68640"] ;
496 -> 497 ;
498 [label="entropy = 0.423\nsamples = 0.1%\nvalue = [0.914, 0.086]", fillcolor="#e78d4c"] ;
496 -> 498 ;
499 [label="Veggies <= 0.5\nentropy = 0.455\nsamples = 0.1%\nvalue = [0.904, 0.096]", fillcolor="#e88e4e"] ;
495 -> 499 ;
500 [label="entropy = 0.696\nsamples = 0.0%\nvalue = [0.812, 0.188]", fillcolor="#eb9e67"] ;
499 -> 500 ;
501 [label="entropy = 0.371\nsamples = 0.1%\nvalue = [0.929, 0.071]", fillcolor="#e78b48"] ;
499 -> 501 ;
502 [label="Smoker <= 0.5\nentropy = 0.472\nsamples = 0.6%\nvalue = [0.899, 0.101]", fillcolor="#e88f4f"] ;
494 -> 502 ;
503 [label="NoDocbcCost <= 0.5\nentropy = 0.363\nsamples = 0.2%\nvalue = [0.931, 0.069]", fillcolor="#e78a48"] ;
502 -> 503 ;
504 [label="entropy = 0.302\nsamples = 0.2%\nvalue = [0.946, 0.054]", fillcolor="#e68844"] ;
503 -> 504 ;
505 [label="entropy = 0.534\nsamples = 0.1%\nvalue = [0.878, 0.122]", fillcolor="#e99254"] ;
503 -> 505 ;
506 [label="BMI_bin <= 0.5\nentropy = 0.538\nsamples = 0.4%\nvalue = [0.877, 0.123]", fillcolor="#e99355"] ;
502 -> 506 ;
507 [label="entropy = 1.0\nsamples = 0.0%\nvalue = [0.5, 0.5]", fillcolor="#ffffff"] ;
506 -> 507 ;
508 [label="entropy = 0.519\nsamples = 0.4%\nvalue = [0.883, 0.117]", fillcolor="#e89253"] ;
506 -> 508 ;
509 [label="HighChol <= 0.5\nentropy = 0.599\nsamples = 0.5%\nvalue = [0.854, 0.146]", fillcolor="#e9965b"] ;
493 -> 509 ;
510 [label="Income <= 7.5\nentropy = 0.492\nsamples = 0.3%\nvalue = [0.893, 0.107]", fillcolor="#e89051"] ;
509 -> 510 ;
511 [label="Education <= 3.5\nentropy = 0.538\nsamples = 0.2%\nvalue = [0.877, 0.123]", fillcolor="#e99355"] ;
510 -> 511 ;
512 [label="entropy = 0.738\nsamples = 0.0%\nvalue = [0.792, 0.208]", fillcolor="#eca26d"] ;
511 -> 512 ;
513 [label="entropy = 0.493\nsamples = 0.2%\nvalue = [0.892, 0.108]", fillcolor="#e89051"] ;
511 -> 513 ;
514 [label="PhysActivity <= 0.5\nentropy = 0.098\nsamples = 0.0%\nvalue = [0.987, 0.013]", fillcolor="#e5833c"] ;
510 -> 514 ;
515 [label="entropy = 0.196\nsamples = 0.0%\nvalue = [0.97, 0.03]", fillcolor="#e6853f"] ;
514 -> 515 ;
516 [label="entropy = 0.0\nsamples = 0.0%\nvalue = [1.0, 0.0]", fillcolor="#e58139"] ;
514 -> 516 ;
517 [label="PhysHlth_bin <= 0.5\nentropy = 0.716\nsamples = 0.2%\nvalue = [0.803, 0.197]", fillcolor="#eba06a"] ;
509 -> 517 ;
518 [label="Sex <= 0.5\nentropy = 0.391\nsamples = 0.0%\nvalue = [0.923, 0.077]", fillcolor="#e78c49"] ;
517 -> 518 ;
519 [label="entropy = 0.0\nsamples = 0.0%\nvalue = [1.0, 0.0]", fillcolor="#e58139"] ;
518 -> 519 ;
520 [label="entropy = 0.811\nsamples = 0.0%\nvalue = [0.75, 0.25]", fillcolor="#eeab7b"] ;
518 -> 520 ;
521 [label="DiffWalk <= 0.5\nentropy = 0.75\nsamples = 0.2%\nvalue = [0.786, 0.214]", fillcolor="#eca36f"] ;
517 -> 521 ;
522 [label="entropy = 0.571\nsamples = 0.0%\nvalue = [0.865, 0.135]", fillcolor="#e99558"] ;
521 -> 522 ;
523 [label="entropy = 0.795\nsamples = 0.1%\nvalue = [0.76, 0.24]", fillcolor="#eda978"] ;
521 -> 523 ;
524 [label="GenHlth <= 4.5\nentropy = 0.677\nsamples = 3.6%\nvalue = [0.822, 0.178]", fillcolor="#eb9c64"] ;
460 -> 524 ;
525 [label="HighChol <= 0.5\nentropy = 0.602\nsamples = 2.6%\nvalue = [0.853, 0.147]", fillcolor="#e9975b"] ;
524 -> 525 ;
526 [label="Age <= 6.5\nentropy = 0.457\nsamples = 1.0%\nvalue = [0.904, 0.096]", fillcolor="#e88e4e"] ;
525 -> 526 ;
527 [label="HvyAlcoholConsump <= 0.5\nentropy = 0.372\nsamples = 0.4%\nvalue = [0.928, 0.072]", fillcolor="#e78b48"] ;
526 -> 527 ;
528 [label="Income <= 5.5\nentropy = 0.387\nsamples = 0.4%\nvalue = [0.924, 0.076]", fillcolor="#e78b49"] ;
527 -> 528 ;
529 [label="entropy = 0.45\nsamples = 0.2%\nvalue = [0.906, 0.094]", fillcolor="#e88e4e"] ;
528 -> 529 ;
530 [label="entropy = 0.292\nsamples = 0.2%\nvalue = [0.949, 0.051]", fillcolor="#e68844"] ;
528 -> 530 ;
531 [label="entropy = 0.0\nsamples = 0.0%\nvalue = [1.0, 0.0]", fillcolor="#e58139"] ;
527 -> 531 ;
532 [label="Income <= 7.5\nentropy = 0.516\nsamples = 0.6%\nvalue = [0.884, 0.116]", fillcolor="#e89153"] ;
526 -> 532 ;
533 [label="NoDocbcCost <= 0.5\nentropy = 0.539\nsamples = 0.5%\nvalue = [0.877, 0.123]", fillcolor="#e99355"] ;
532 -> 533 ;
534 [label="entropy = 0.503\nsamples = 0.4%\nvalue = [0.889, 0.111]", fillcolor="#e89152"] ;
533 -> 534 ;
535 [label="entropy = 0.643\nsamples = 0.1%\nvalue = [0.836, 0.164]", fillcolor="#ea9a60"] ;
533 -> 535 ;
536 [label="BMI_bin <= 2.5\nentropy = 0.377\nsamples = 0.1%\nvalue = [0.927, 0.073]", fillcolor="#e78b49"] ;
532 -> 536 ;
537 [label="entropy = 0.586\nsamples = 0.0%\nvalue = [0.859, 0.141]", fillcolor="#e99659"] ;
536 -> 537 ;
538 [label="entropy = 0.184\nsamples = 0.1%\nvalue = [0.972, 0.028]", fillcolor="#e6853f"] ;
536 -> 538 ;
539 [label="Age <= 5.5\nentropy = 0.68\nsamples = 1.6%\nvalue = [0.82, 0.18]", fillcolor="#eb9d64"] ;
525 -> 539 ;
540 [label="Age <= 4.5\nentropy = 0.496\nsamples = 0.3%\nvalue = [0.891, 0.109]", fillcolor="#e89051"] ;
539 -> 540 ;
541 [label="Income <= 6.5\nentropy = 0.401\nsamples = 0.2%\nvalue = [0.92, 0.08]", fillcolor="#e78c4a"] ;
540 -> 541 ;
542 [label="entropy = 0.47\nsamples = 0.1%\nvalue = [0.9, 0.1]", fillcolor="#e88f4f"] ;
541 -> 542 ;
543 [label="entropy = 0.202\nsamples = 0.0%\nvalue = [0.968, 0.032]", fillcolor="#e6853f"] ;
541 -> 543 ;
544 [label="Veggies <= 0.5\nentropy = 0.582\nsamples = 0.1%\nvalue = [0.861, 0.139]", fillcolor="#e99559"] ;
540 -> 544 ;
545 [label="entropy = 0.401\nsamples = 0.0%\nvalue = [0.92, 0.08]", fillcolor="#e78c4a"] ;
544 -> 545 ;
546 [label="entropy = 0.643\nsamples = 0.1%\nvalue = [0.836, 0.164]", fillcolor="#ea9a60"] ;
544 -> 546 ;
547 [label="Smoker <= 0.5\nentropy = 0.716\nsamples = 1.3%\nvalue = [0.803, 0.197]", fillcolor="#eba06a"] ;
539 -> 547 ;
548 [label="DiffWalk <= 0.5\nentropy = 0.626\nsamples = 0.5%\nvalue = [0.843, 0.157]", fillcolor="#ea985e"] ;
547 -> 548 ;
549 [label="entropy = 0.539\nsamples = 0.3%\nvalue = [0.877, 0.123]", fillcolor="#e99355"] ;
548 -> 549 ;
550 [label="entropy = 0.732\nsamples = 0.2%\nvalue = [0.795, 0.205]", fillcolor="#eca26c"] ;
548 -> 550 ;
551 [label="Sex <= 0.5\nentropy = 0.775\nsamples = 0.7%\nvalue = [0.772, 0.228]", fillcolor="#eda674"] ;
547 -> 551 ;
552 [label="entropy = 0.727\nsamples = 0.4%\nvalue = [0.797, 0.203]", fillcolor="#eca16b"] ;
551 -> 552 ;
553 [label="entropy = 0.818\nsamples = 0.4%\nvalue = [0.745, 0.255]", fillcolor="#eeac7d"] ;
551 -> 553 ;
554 [label="HighChol <= 0.5\nentropy = 0.824\nsamples = 1.0%\nvalue = [0.742, 0.258]", fillcolor="#eead7e"] ;
524 -> 554 ;
555 [label="Smoker <= 0.5\nentropy = 0.699\nsamples = 0.3%\nvalue = [0.811, 0.189]", fillcolor="#eb9e67"] ;
554 -> 555 ;
556 [label="Age <= 3.5\nentropy = 0.552\nsamples = 0.1%\nvalue = [0.872, 0.128]", fillcolor="#e99356"] ;
555 -> 556 ;
557 [label="entropy = 0.0\nsamples = 0.0%\nvalue = [1.0, 0.0]", fillcolor="#e58139"] ;
556 -> 557 ;
558 [label="Income <= 6.5\nentropy = 0.588\nsamples = 0.1%\nvalue = [0.858, 0.142]", fillcolor="#e9965a"] ;
556 -> 558 ;
559 [label="entropy = 0.637\nsamples = 0.1%\nvalue = [0.839, 0.161]", fillcolor="#ea995f"] ;
558 -> 559 ;
560 [label="entropy = 0.386\nsamples = 0.0%\nvalue = [0.925, 0.075]", fillcolor="#e78b49"] ;
558 -> 560 ;
561 [label="Diabetes_bin <= 0.5\nentropy = 0.774\nsamples = 0.2%\nvalue = [0.772, 0.228]", fillcolor="#eda673"] ;
555 -> 561 ;
562 [label="Age <= 7.5\nentropy = 0.676\nsamples = 0.1%\nvalue = [0.822, 0.178]", fillcolor="#eb9c64"] ;
561 -> 562 ;
563 [label="entropy = 0.527\nsamples = 0.1%\nvalue = [0.881, 0.119]", fillcolor="#e99254"] ;
562 -> 563 ;
564 [label="entropy = 0.857\nsamples = 0.0%\nvalue = [0.719, 0.281]", fillcolor="#efb286"] ;
562 -> 564 ;
565 [label="Income <= 7.5\nentropy = 0.906\nsamples = 0.1%\nvalue = [0.679, 0.321]", fillcolor="#f1bd97"] ;
561 -> 565 ;
566 [label="entropy = 0.916\nsamples = 0.1%\nvalue = [0.669, 0.331]", fillcolor="#f2bf9b"] ;
565 -> 566 ;
567 [label="entropy = 0.0\nsamples = 0.0%\nvalue = [1.0, 0.0]", fillcolor="#e58139"] ;
565 -> 567 ;
568 [label="DiffWalk <= 0.5\nentropy = 0.87\nsamples = 0.7%\nvalue = [0.709, 0.291]", fillcolor="#f0b58a"] ;
554 -> 568 ;
569 [label="Age <= 3.5\nentropy = 0.713\nsamples = 0.2%\nvalue = [0.804, 0.196]", fillcolor="#eba069"] ;
568 -> 569 ;
570 [label="entropy = 0.0\nsamples = 0.0%\nvalue = [1.0, 0.0]", fillcolor="#e58139"] ;
569 -> 570 ;
571 [label="Education <= 3.5\nentropy = 0.732\nsamples = 0.1%\nvalue = [0.795, 0.205]", fillcolor="#eca26c"] ;
569 -> 571 ;
572 [label="entropy = 0.883\nsamples = 0.0%\nvalue = [0.698, 0.302]", fillcolor="#f0b78e"] ;
571 -> 572 ;
573 [label="entropy = 0.68\nsamples = 0.1%\nvalue = [0.82, 0.18]", fillcolor="#eb9d64"] ;
571 -> 573 ;
574 [label="Sex <= 0.5\nentropy = 0.903\nsamples = 0.5%\nvalue = [0.682, 0.318]", fillcolor="#f1bc95"] ;
568 -> 574 ;
575 [label="Income <= 6.5\nentropy = 0.84\nsamples = 0.3%\nvalue = [0.731, 0.269]", fillcolor="#efaf82"] ;
574 -> 575 ;
576 [label="entropy = 0.853\nsamples = 0.3%\nvalue = [0.722, 0.278]", fillcolor="#efb285"] ;
575 -> 576 ;
577 [label="entropy = 0.722\nsamples = 0.0%\nvalue = [0.8, 0.2]", fillcolor="#eca06a"] ;
575 -> 577 ;
578 [label="MentHlth_bin <= 1.5\nentropy = 0.965\nsamples = 0.2%\nvalue = [0.609, 0.391]", fillcolor="#f6d2b8"] ;
574 -> 578 ;
579 [label="entropy = 0.991\nsamples = 0.1%\nvalue = [0.556, 0.444]", fillcolor="#fae6d7"] ;
578 -> 579 ;
580 [label="entropy = 0.903\nsamples = 0.1%\nvalue = [0.681, 0.319]", fillcolor="#f1bc96"] ;
578 -> 580 ;
581 [label="HighBP <= 0.5\nentropy = 0.977\nsamples = 0.6%\nvalue = [0.589, 0.411]", fillcolor="#f7d9c3"] ;
459 -> 581 ;
582 [label="Smoker <= 0.5\nentropy = 0.842\nsamples = 0.2%\nvalue = [0.73, 0.27]", fillcolor="#efb082"] ;
581 -> 582 ;
583 [label="BMI_bin <= 1.5\nentropy = 0.677\nsamples = 0.1%\nvalue = [0.821, 0.179]", fillcolor="#eb9c64"] ;
582 -> 583 ;
584 [label="Income <= 7.5\nentropy = 0.267\nsamples = 0.0%\nvalue = [0.955, 0.045]", fillcolor="#e68742"] ;
583 -> 584 ;
585 [label="entropy = 0.0\nsamples = 0.0%\nvalue = [1.0, 0.0]", fillcolor="#e58139"] ;
584 -> 585 ;
586 [label="entropy = 0.65\nsamples = 0.0%\nvalue = [0.833, 0.167]", fillcolor="#ea9a61"] ;
584 -> 586 ;
587 [label="Income <= 1.5\nentropy = 0.744\nsamples = 0.0%\nvalue = [0.789, 0.211]", fillcolor="#eca36e"] ;
583 -> 587 ;
588 [label="Age <= 6.5\nentropy = 1.0\nsamples = 0.0%\nvalue = [0.5, 0.5]", fillcolor="#ffffff"] ;
587 -> 588 ;
589 [label="entropy = 0.722\nsamples = 0.0%\nvalue = [0.8, 0.2]", fillcolor="#eca06a"] ;
588 -> 589 ;
590 [label="entropy = 0.722\nsamples = 0.0%\nvalue = [0.2, 0.8]", fillcolor="#6ab6ec"] ;
588 -> 590 ;
591 [label="HighChol <= 0.5\nentropy = 0.669\nsamples = 0.0%\nvalue = [0.825, 0.175]", fillcolor="#eb9c63"] ;
587 -> 591 ;
592 [label="Age <= 6.5\nentropy = 0.511\nsamples = 0.0%\nvalue = [0.886, 0.114]", fillcolor="#e89152"] ;
591 -> 592 ;
593 [label="entropy = 0.691\nsamples = 0.0%\nvalue = [0.815, 0.185]", fillcolor="#eb9e66"] ;
592 -> 593 ;
594 [label="entropy = 0.0\nsamples = 0.0%\nvalue = [1.0, 0.0]", fillcolor="#e58139"] ;
592 -> 594 ;
595 [label="Fruits <= 0.5\nentropy = 0.811\nsamples = 0.0%\nvalue = [0.75, 0.25]", fillcolor="#eeab7b"] ;
591 -> 595 ;
596 [label="entropy = 0.391\nsamples = 0.0%\nvalue = [0.923, 0.077]", fillcolor="#e78c49"] ;
595 -> 596 ;
597 [label="entropy = 0.932\nsamples = 0.0%\nvalue = [0.652, 0.348]", fillcolor="#f3c4a3"] ;
595 -> 597 ;
598 [label="Education <= 3.5\nentropy = 0.901\nsamples = 0.1%\nvalue = [0.683, 0.317]", fillcolor="#f1bb95"] ;
582 -> 598 ;
599 [label="Age <= 5.5\nentropy = 0.999\nsamples = 0.0%\nvalue = [0.516, 0.484]", fillcolor="#fdf7f3"] ;
598 -> 599 ;
600 [label="entropy = 0.65\nsamples = 0.0%\nvalue = [0.833, 0.167]", fillcolor="#ea9a61"] ;
599 -> 600 ;
601 [label="Sex <= 0.5\nentropy = 0.99\nsamples = 0.0%\nvalue = [0.44, 0.56]", fillcolor="#d5eaf9"] ;
599 -> 601 ;
602 [label="PhysHlth_bin <= 0.5\nentropy = 0.998\nsamples = 0.0%\nvalue = [0.526, 0.474]", fillcolor="#fcf2eb"] ;
601 -> 602 ;
603 [label="entropy = 0.65\nsamples = 0.0%\nvalue = [0.167, 0.833]", fillcolor="#61b1ea"] ;
602 -> 603 ;
604 [label="entropy = 0.89\nsamples = 0.0%\nvalue = [0.692, 0.308]", fillcolor="#f1b991"] ;
602 -> 604 ;
605 [label="entropy = 0.65\nsamples = 0.0%\nvalue = [0.167, 0.833]", fillcolor="#61b1ea"] ;
601 -> 605 ;
606 [label="Education <= 5.5\nentropy = 0.868\nsamples = 0.1%\nvalue = [0.711, 0.289]", fillcolor="#f0b48a"] ;
598 -> 606 ;
607 [label="PhysActivity <= 0.5\nentropy = 0.811\nsamples = 0.1%\nvalue = [0.75, 0.25]", fillcolor="#eeab7b"] ;
606 -> 607 ;
608 [label="NoDocbcCost <= 0.5\nentropy = 0.9\nsamples = 0.0%\nvalue = [0.684, 0.316]", fillcolor="#f1bb95"] ;
607 -> 608 ;
609 [label="entropy = 0.964\nsamples = 0.0%\nvalue = [0.611, 0.389]", fillcolor="#f6d1b7"] ;
608 -> 609 ;
610 [label="entropy = 0.634\nsamples = 0.0%\nvalue = [0.84, 0.16]", fillcolor="#ea995f"] ;
608 -> 610 ;
611 [label="Diabetes_bin <= 0.5\nentropy = 0.676\nsamples = 0.0%\nvalue = [0.822, 0.178]", fillcolor="#eb9c64"] ;
607 -> 611 ;
612 [label="entropy = 0.48\nsamples = 0.0%\nvalue = [0.897, 0.103]", fillcolor="#e89050"] ;
611 -> 612 ;
613 [label="entropy = 0.997\nsamples = 0.0%\nvalue = [0.533, 0.467]", fillcolor="#fcefe6"] ;
611 -> 613 ;
614 [label="BMI_bin <= 1.5\nentropy = 0.992\nsamples = 0.0%\nvalue = [0.553, 0.447]", fillcolor="#fae7d9"] ;
606 -> 614 ;
615 [label="HighChol <= 0.5\nentropy = 0.9\nsamples = 0.0%\nvalue = [0.684, 0.316]", fillcolor="#f1bb94"] ;
614 -> 615 ;
616 [label="entropy = 0.65\nsamples = 0.0%\nvalue = [0.833, 0.167]", fillcolor="#ea9a61"] ;
615 -> 616 ;
617 [label="entropy = 0.985\nsamples = 0.0%\nvalue = [0.429, 0.571]", fillcolor="#cee6f8"] ;
615 -> 617 ;
618 [label="NoDocbcCost <= 0.5\nentropy = 0.982\nsamples = 0.0%\nvalue = [0.421, 0.579]", fillcolor="#c9e4f8"] ;
614 -> 618 ;
619 [label="entropy = 0.469\nsamples = 0.0%\nvalue = [0.1, 0.9]", fillcolor="#4fa8e8"] ;
618 -> 619 ;
620 [label="entropy = 0.764\nsamples = 0.0%\nvalue = [0.778, 0.222]", fillcolor="#eca572"] ;
618 -> 620 ;
621 [label="GenHlth <= 4.5\nentropy = 0.996\nsamples = 0.4%\nvalue = [0.537, 0.463]", fillcolor="#fbeee4"] ;
581 -> 621 ;
622 [label="Income <= 6.5\nentropy = 0.969\nsamples = 0.2%\nvalue = [0.603, 0.397]", fillcolor="#f6d4bb"] ;
621 -> 622 ;
623 [label="Sex <= 0.5\nentropy = 0.983\nsamples = 0.2%\nvalue = [0.576, 0.424]", fillcolor="#f8decb"] ;
622 -> 623 ;
624 [label="Age <= 2.5\nentropy = 0.948\nsamples = 0.1%\nvalue = [0.633, 0.367]", fillcolor="#f4caac"] ;
623 -> 624 ;
625 [label="entropy = 0.0\nsamples = 0.0%\nvalue = [1.0, 0.0]", fillcolor="#e58139"] ;
624 -> 625 ;
626 [label="Veggies <= 0.5\nentropy = 0.954\nsamples = 0.1%\nvalue = [0.625, 0.375]", fillcolor="#f5cdb0"] ;
624 -> 626 ;
627 [label="entropy = 0.876\nsamples = 0.0%\nvalue = [0.704, 0.296]", fillcolor="#f0b68c"] ;
626 -> 627 ;
628 [label="entropy = 0.976\nsamples = 0.1%\nvalue = [0.59, 0.41]", fillcolor="#f7d9c3"] ;
626 -> 628 ;
629 [label="HighChol <= 0.5\nentropy = 1.0\nsamples = 0.1%\nvalue = [0.5, 0.5]", fillcolor="#ffffff"] ;
623 -> 629 ;
630 [label="PhysHlth_bin <= 0.5\nentropy = 0.954\nsamples = 0.0%\nvalue = [0.625, 0.375]", fillcolor="#f5cdb0"] ;
629 -> 630 ;
631 [label="entropy = 0.771\nsamples = 0.0%\nvalue = [0.774, 0.226]", fillcolor="#eda673"] ;
630 -> 631 ;
632 [label="entropy = 0.99\nsamples = 0.0%\nvalue = [0.44, 0.56]", fillcolor="#d5eaf9"] ;
630 -> 632 ;
633 [label="Education <= 4.5\nentropy = 0.99\nsamples = 0.1%\nvalue = [0.442, 0.558]", fillcolor="#d6ebfa"] ;
629 -> 633 ;
634 [label="entropy = 0.956\nsamples = 0.0%\nvalue = [0.377, 0.623]", fillcolor="#b1d8f5"] ;
633 -> 634 ;
635 [label="entropy = 0.99\nsamples = 0.0%\nvalue = [0.558, 0.442]", fillcolor="#fae5d6"] ;
633 -> 635 ;
636 [label="Age <= 5.5\nentropy = 0.806\nsamples = 0.0%\nvalue = [0.753, 0.247]", fillcolor="#eeaa7a"] ;
622 -> 636 ;
637 [label="entropy = 0.0\nsamples = 0.0%\nvalue = [1.0, 0.0]", fillcolor="#e58139"] ;
636 -> 637 ;
638 [label="PhysActivity <= 0.5\nentropy = 0.869\nsamples = 0.0%\nvalue = [0.71, 0.29]", fillcolor="#f0b58a"] ;
636 -> 638 ;
639 [label="Sex <= 0.5\nentropy = 0.677\nsamples = 0.0%\nvalue = [0.821, 0.179]", fillcolor="#eb9c64"] ;
638 -> 639 ;
640 [label="entropy = 0.337\nsamples = 0.0%\nvalue = [0.938, 0.062]", fillcolor="#e78946"] ;
639 -> 640 ;
641 [label="entropy = 0.918\nsamples = 0.0%\nvalue = [0.667, 0.333]", fillcolor="#f2c09c"] ;
639 -> 641 ;
642 [label="Diabetes_bin <= 0.5\nentropy = 0.96\nsamples = 0.0%\nvalue = [0.618, 0.382]", fillcolor="#f5cfb4"] ;
638 -> 642 ;
643 [label="entropy = 0.811\nsamples = 0.0%\nvalue = [0.75, 0.25]", fillcolor="#eeab7b"] ;
642 -> 643 ;
644 [label="entropy = 0.985\nsamples = 0.0%\nvalue = [0.429, 0.571]", fillcolor="#cee6f8"] ;
642 -> 644 ;
645 [label="Diabetes_bin <= 0.5\nentropy = 0.995\nsamples = 0.2%\nvalue = [0.459, 0.541]", fillcolor="#e1f0fb"] ;
621 -> 645 ;
646 [label="Sex <= 0.5\nentropy = 0.997\nsamples = 0.1%\nvalue = [0.534, 0.466]", fillcolor="#fcefe6"] ;
645 -> 646 ;
647 [label="MentHlth_bin <= 0.5\nentropy = 0.969\nsamples = 0.1%\nvalue = [0.604, 0.396]", fillcolor="#f6d4bb"] ;
646 -> 647 ;
648 [label="PhysHlth_bin <= 0.5\nentropy = 1.0\nsamples = 0.0%\nvalue = [0.487, 0.513]", fillcolor="#f5fafe"] ;
647 -> 648 ;
649 [label="entropy = 0.722\nsamples = 0.0%\nvalue = [0.8, 0.2]", fillcolor="#eca06a"] ;
648 -> 649 ;
650 [label="entropy = 0.99\nsamples = 0.0%\nvalue = [0.441, 0.559]", fillcolor="#d5eafa"] ;
648 -> 650 ;
651 [label="BMI_bin <= 0.5\nentropy = 0.913\nsamples = 0.0%\nvalue = [0.672, 0.328]", fillcolor="#f2bf9a"] ;
647 -> 651 ;
652 [label="entropy = 0.918\nsamples = 0.0%\nvalue = [0.333, 0.667]", fillcolor="#9ccef2"] ;
651 -> 652 ;
653 [label="entropy = 0.875\nsamples = 0.0%\nvalue = [0.705, 0.295]", fillcolor="#f0b68c"] ;
651 -> 653 ;
654 [label="NoDocbcCost <= 0.5\nentropy = 0.992\nsamples = 0.0%\nvalue = [0.447, 0.553]", fillcolor="#d9ecfa"] ;
646 -> 654 ;
655 [label="Age <= 5.5\nentropy = 0.997\nsamples = 0.0%\nvalue = [0.531, 0.469]", fillcolor="#fcf0e8"] ;
654 -> 655 ;
656 [label="entropy = 0.65\nsamples = 0.0%\nvalue = [0.167, 0.833]", fillcolor="#61b1ea"] ;
655 -> 656 ;
657 [label="entropy = 0.981\nsamples = 0.0%\nvalue = [0.581, 0.419]", fillcolor="#f8dcc8"] ;
655 -> 657 ;
658 [label="Income <= 4.5\nentropy = 0.918\nsamples = 0.0%\nvalue = [0.333, 0.667]", fillcolor="#9ccef2"] ;
654 -> 658 ;
659 [label="entropy = 0.75\nsamples = 0.0%\nvalue = [0.214, 0.786]", fillcolor="#6fb8ec"] ;
658 -> 659 ;
660 [label="entropy = 0.811\nsamples = 0.0%\nvalue = [0.75, 0.25]", fillcolor="#eeab7b"] ;
658 -> 660 ;
661 [label="Age <= 6.5\nentropy = 0.967\nsamples = 0.1%\nvalue = [0.394, 0.606]", fillcolor="#baddf6"] ;
645 -> 661 ;
662 [label="Sex <= 0.5\nentropy = 0.996\nsamples = 0.0%\nvalue = [0.535, 0.465]", fillcolor="#fcefe5"] ;
661 -> 662 ;
663 [label="Education <= 3.5\nentropy = 0.98\nsamples = 0.0%\nvalue = [0.417, 0.583]", fillcolor="#c6e3f8"] ;
662 -> 663 ;
664 [label="entropy = 0.811\nsamples = 0.0%\nvalue = [0.75, 0.25]", fillcolor="#eeab7b"] ;
663 -> 664 ;
665 [label="entropy = 0.934\nsamples = 0.0%\nvalue = [0.35, 0.65]", fillcolor="#a4d2f3"] ;
663 -> 665 ;
666 [label="NoDocbcCost <= 0.5\nentropy = 0.9\nsamples = 0.0%\nvalue = [0.684, 0.316]", fillcolor="#f1bb94"] ;
662 -> 666 ;
667 [label="entropy = 0.75\nsamples = 0.0%\nvalue = [0.786, 0.214]", fillcolor="#eca36f"] ;
666 -> 667 ;
668 [label="entropy = 0.971\nsamples = 0.0%\nvalue = [0.4, 0.6]", fillcolor="#bddef6"] ;
666 -> 668 ;
669 [label="Income <= 2.5\nentropy = 0.942\nsamples = 0.1%\nvalue = [0.36, 0.64]", fillcolor="#a8d4f4"] ;
661 -> 669 ;
670 [label="BMI_bin <= 1.5\nentropy = 0.844\nsamples = 0.0%\nvalue = [0.271, 0.729]", fillcolor="#83c2ef"] ;
669 -> 670 ;
671 [label="entropy = 0.0\nsamples = 0.0%\nvalue = [0.0, 1.0]", fillcolor="#399de5"] ;
670 -> 671 ;
672 [label="entropy = 0.866\nsamples = 0.0%\nvalue = [0.288, 0.712]", fillcolor="#89c5f0"] ;
670 -> 672 ;
673 [label="DiffWalk <= 0.5\nentropy = 0.98\nsamples = 0.1%\nvalue = [0.417, 0.583]", fillcolor="#c6e3f8"] ;
669 -> 673 ;
674 [label="entropy = 0.845\nsamples = 0.0%\nvalue = [0.727, 0.273]", fillcolor="#efb083"] ;
673 -> 674 ;
675 [label="entropy = 0.959\nsamples = 0.0%\nvalue = [0.381, 0.619]", fillcolor="#b3d9f5"] ;
673 -> 675 ;
676 [label="Stroke <= 0.5\nentropy = 0.907\nsamples = 9.9%\nvalue = [0.678, 0.322]", fillcolor="#f1bd97"] ;
458 -> 676 ;
677 [label="HighChol <= 0.5\nentropy = 0.868\nsamples = 8.5%\nvalue = [0.711, 0.289]", fillcolor="#f0b48a"] ;
676 -> 677 ;
678 [label="Age <= 12.5\nentropy = 0.744\nsamples = 3.2%\nvalue = [0.788, 0.212]", fillcolor="#eca36e"] ;
677 -> 678 ;
679 [label="Diabetes_bin <= 0.5\nentropy = 0.695\nsamples = 2.6%\nvalue = [0.813, 0.187]", fillcolor="#eb9e67"] ;
678 -> 679 ;
680 [label="Sex <= 0.5\nentropy = 0.619\nsamples = 1.8%\nvalue = [0.846, 0.154]", fillcolor="#ea985d"] ;
679 -> 680 ;
681 [label="HighBP <= 0.5\nentropy = 0.517\nsamples = 1.1%\nvalue = [0.884, 0.116]", fillcolor="#e89253"] ;
680 -> 681 ;
682 [label="Age <= 10.5\nentropy = 0.372\nsamples = 0.5%\nvalue = [0.928, 0.072]", fillcolor="#e78b48"] ;
681 -> 682 ;
683 [label="entropy = 0.296\nsamples = 0.3%\nvalue = [0.948, 0.052]", fillcolor="#e68844"] ;
682 -> 683 ;
684 [label="entropy = 0.504\nsamples = 0.2%\nvalue = [0.889, 0.111]", fillcolor="#e89152"] ;
682 -> 684 ;
685 [label="GenHlth <= 4.5\nentropy = 0.611\nsamples = 0.6%\nvalue = [0.85, 0.15]", fillcolor="#ea975c"] ;
681 -> 685 ;
686 [label="entropy = 0.537\nsamples = 0.5%\nvalue = [0.877, 0.123]", fillcolor="#e99355"] ;
685 -> 686 ;
687 [label="entropy = 0.801\nsamples = 0.1%\nvalue = [0.756, 0.244]", fillcolor="#edaa79"] ;
685 -> 687 ;
688 [label="Age <= 9.5\nentropy = 0.736\nsamples = 0.7%\nvalue = [0.793, 0.207]", fillcolor="#eca26d"] ;
680 -> 688 ;
689 [label="Education <= 3.5\nentropy = 0.631\nsamples = 0.3%\nvalue = [0.841, 0.159]", fillcolor="#ea995e"] ;
688 -> 689 ;
690 [label="entropy = 0.345\nsamples = 0.0%\nvalue = [0.935, 0.065]", fillcolor="#e78a47"] ;
689 -> 690 ;
691 [label="entropy = 0.658\nsamples = 0.2%\nvalue = [0.83, 0.17]", fillcolor="#ea9b62"] ;
689 -> 691 ;
692 [label="BMI_bin <= 1.5\nentropy = 0.789\nsamples = 0.5%\nvalue = [0.763, 0.237]", fillcolor="#eda876"] ;
688 -> 692 ;
693 [label="entropy = 0.685\nsamples = 0.1%\nvalue = [0.818, 0.182]", fillcolor="#eb9d65"] ;
692 -> 693 ;
694 [label="entropy = 0.825\nsamples = 0.3%\nvalue = [0.741, 0.259]", fillcolor="#eead7e"] ;
692 -> 694 ;
695 [label="GenHlth <= 4.5\nentropy = 0.826\nsamples = 0.8%\nvalue = [0.74, 0.26]", fillcolor="#eead7e"] ;
679 -> 695 ;
696 [label="Age <= 10.5\nentropy = 0.766\nsamples = 0.6%\nvalue = [0.777, 0.223]", fillcolor="#eca572"] ;
695 -> 696 ;
697 [label="MentHlth_bin <= 1.5\nentropy = 0.704\nsamples = 0.4%\nvalue = [0.809, 0.191]", fillcolor="#eb9f68"] ;
696 -> 697 ;
698 [label="entropy = 0.681\nsamples = 0.3%\nvalue = [0.82, 0.18]", fillcolor="#eb9d65"] ;
697 -> 698 ;
699 [label="entropy = 0.901\nsamples = 0.0%\nvalue = [0.683, 0.317]", fillcolor="#f1bb95"] ;
697 -> 699 ;
700 [label="Sex <= 0.5\nentropy = 0.845\nsamples = 0.2%\nvalue = [0.728, 0.272]", fillcolor="#efb083"] ;
696 -> 700 ;
701 [label="entropy = 0.76\nsamples = 0.1%\nvalue = [0.78, 0.22]", fillcolor="#eca471"] ;
700 -> 701 ;
702 [label="entropy = 0.92\nsamples = 0.1%\nvalue = [0.665, 0.335]", fillcolor="#f2c09d"] ;
700 -> 702 ;
703 [label="DiffWalk <= 0.5\nentropy = 0.943\nsamples = 0.2%\nvalue = [0.64, 0.36]", fillcolor="#f4c8a9"] ;
695 -> 703 ;
704 [label="Sex <= 0.5\nentropy = 0.818\nsamples = 0.1%\nvalue = [0.746, 0.254]", fillcolor="#eeac7c"] ;
703 -> 704 ;
705 [label="entropy = 0.496\nsamples = 0.0%\nvalue = [0.891, 0.109]", fillcolor="#e89051"] ;
704 -> 705 ;
706 [label="entropy = 0.932\nsamples = 0.0%\nvalue = [0.653, 0.347]", fillcolor="#f3c4a2"] ;
704 -> 706 ;
707 [label="Education <= 2.5\nentropy = 0.97\nsamples = 0.2%\nvalue = [0.601, 0.399]", fillcolor="#f6d5bc"] ;
703 -> 707 ;
708 [label="entropy = 0.982\nsamples = 0.0%\nvalue = [0.421, 0.579]", fillcolor="#c9e4f8"] ;
707 -> 708 ;
709 [label="entropy = 0.963\nsamples = 0.2%\nvalue = [0.612, 0.388]", fillcolor="#f5d1b6"] ;
707 -> 709 ;
710 [label="GenHlth <= 4.5\nentropy = 0.9\nsamples = 0.6%\nvalue = [0.684, 0.316]", fillcolor="#f1bb94"] ;
678 -> 710 ;
711 [label="Sex <= 0.5\nentropy = 0.861\nsamples = 0.5%\nvalue = [0.716, 0.284]", fillcolor="#efb387"] ;
710 -> 711 ;
712 [label="Income <= 5.5\nentropy = 0.785\nsamples = 0.3%\nvalue = [0.766, 0.234]", fillcolor="#eda876"] ;
711 -> 712 ;
713 [label="HighBP <= 0.5\nentropy = 0.843\nsamples = 0.2%\nvalue = [0.729, 0.271]", fillcolor="#efb083"] ;
712 -> 713 ;
714 [label="entropy = 0.699\nsamples = 0.1%\nvalue = [0.811, 0.189]", fillcolor="#eb9e67"] ;
713 -> 714 ;
715 [label="entropy = 0.9\nsamples = 0.1%\nvalue = [0.684, 0.316]", fillcolor="#f1bb94"] ;
713 -> 715 ;
716 [label="PhysActivity <= 0.5\nentropy = 0.519\nsamples = 0.1%\nvalue = [0.884, 0.116]", fillcolor="#e89253"] ;
712 -> 716 ;
717 [label="entropy = 0.65\nsamples = 0.0%\nvalue = [0.833, 0.167]", fillcolor="#ea9a61"] ;
716 -> 717 ;
718 [label="entropy = 0.375\nsamples = 0.0%\nvalue = [0.928, 0.072]", fillcolor="#e78b48"] ;
716 -> 718 ;
719 [label="Education <= 2.5\nentropy = 0.934\nsamples = 0.2%\nvalue = [0.65, 0.35]", fillcolor="#f3c5a4"] ;
711 -> 719 ;
720 [label="Smoker <= 0.5\nentropy = 0.353\nsamples = 0.0%\nvalue = [0.933, 0.067]", fillcolor="#e78a47"] ;
719 -> 720 ;
721 [label="entropy = 0.0\nsamples = 0.0%\nvalue = [1.0, 0.0]", fillcolor="#e58139"] ;
720 -> 721 ;
722 [label="entropy = 0.619\nsamples = 0.0%\nvalue = [0.846, 0.154]", fillcolor="#ea985d"] ;
720 -> 722 ;
723 [label="Income <= 5.5\nentropy = 0.952\nsamples = 0.2%\nvalue = [0.628, 0.372]", fillcolor="#f4ccae"] ;
719 -> 723 ;
724 [label="entropy = 0.9\nsamples = 0.1%\nvalue = [0.684, 0.316]", fillcolor="#f1bb94"] ;
723 -> 724 ;
725 [label="entropy = 0.991\nsamples = 0.1%\nvalue = [0.557, 0.443]", fillcolor="#fae5d7"] ;
723 -> 725 ;
726 [label="Income <= 4.5\nentropy = 0.979\nsamples = 0.1%\nvalue = [0.584, 0.416]", fillcolor="#f8dbc6"] ;
710 -> 726 ;
727 [label="MentHlth_bin <= 1.5\nentropy = 0.943\nsamples = 0.1%\nvalue = [0.639, 0.361]", fillcolor="#f4c8a9"] ;
726 -> 727 ;
728 [label="Income <= 2.5\nentropy = 0.965\nsamples = 0.1%\nvalue = [0.61, 0.39]", fillcolor="#f6d2b8"] ;
727 -> 728 ;
729 [label="entropy = 1.0\nsamples = 0.0%\nvalue = [0.512, 0.488]", fillcolor="#fef9f6"] ;
728 -> 729 ;
730 [label="entropy = 0.934\nsamples = 0.0%\nvalue = [0.65, 0.35]", fillcolor="#f3c5a4"] ;
728 -> 730 ;
731 [label="BMI_bin <= 1.5\nentropy = 0.75\nsamples = 0.0%\nvalue = [0.786, 0.214]", fillcolor="#eca36f"] ;
727 -> 731 ;
732 [label="entropy = 0.0\nsamples = 0.0%\nvalue = [1.0, 0.0]", fillcolor="#e58139"] ;
731 -> 732 ;
733 [label="entropy = 0.918\nsamples = 0.0%\nvalue = [0.667, 0.333]", fillcolor="#f2c09c"] ;
731 -> 733 ;
734 [label="PhysHlth_bin <= 0.5\nentropy = 0.999\nsamples = 0.1%\nvalue = [0.515, 0.485]", fillcolor="#fdf8f4"] ;
726 -> 734 ;
735 [label="Sex <= 0.5\nentropy = 0.931\nsamples = 0.0%\nvalue = [0.346, 0.654]", fillcolor="#a2d1f3"] ;
734 -> 735 ;
736 [label="entropy = 0.684\nsamples = 0.0%\nvalue = [0.182, 0.818]", fillcolor="#65b3eb"] ;
735 -> 736 ;
737 [label="entropy = 0.997\nsamples = 0.0%\nvalue = [0.467, 0.533]", fillcolor="#e6f3fc"] ;
735 -> 737 ;
738 [label="DiffWalk <= 0.5\nentropy = 0.991\nsamples = 0.1%\nvalue = [0.556, 0.444]", fillcolor="#fae6d7"] ;
734 -> 738 ;
739 [label="entropy = 0.877\nsamples = 0.0%\nvalue = [0.704, 0.296]", fillcolor="#f0b68c"] ;
738 -> 739 ;
740 [label="entropy = 1.0\nsamples = 0.0%\nvalue = [0.506, 0.494]", fillcolor="#fefcfa"] ;
738 -> 740 ;
741 [label="Sex <= 0.5\nentropy = 0.922\nsamples = 5.3%\nvalue = [0.663, 0.337]", fillcolor="#f2c19e"] ;
677 -> 741 ;
742 [label="GenHlth <= 4.5\nentropy = 0.85\nsamples = 3.1%\nvalue = [0.724, 0.276]", fillcolor="#efb184"] ;
741 -> 742 ;
743 [label="Age <= 10.5\nentropy = 0.804\nsamples = 2.2%\nvalue = [0.755, 0.245]", fillcolor="#edaa79"] ;
742 -> 743 ;
744 [label="Smoker <= 0.5\nentropy = 0.724\nsamples = 1.1%\nvalue = [0.799, 0.201]", fillcolor="#eca16b"] ;
743 -> 744 ;
745 [label="DiffWalk <= 0.5\nentropy = 0.614\nsamples = 0.5%\nvalue = [0.848, 0.152]", fillcolor="#ea985c"] ;
744 -> 745 ;
746 [label="entropy = 0.516\nsamples = 0.2%\nvalue = [0.885, 0.115]", fillcolor="#e89153"] ;
745 -> 746 ;
747 [label="entropy = 0.684\nsamples = 0.3%\nvalue = [0.818, 0.182]", fillcolor="#eb9d65"] ;
745 -> 747 ;
748 [label="HighBP <= 0.5\nentropy = 0.807\nsamples = 0.6%\nvalue = [0.753, 0.247]", fillcolor="#eeaa7a"] ;
744 -> 748 ;
749 [label="entropy = 0.628\nsamples = 0.2%\nvalue = [0.842, 0.158]", fillcolor="#ea995e"] ;
748 -> 749 ;
750 [label="entropy = 0.855\nsamples = 0.4%\nvalue = [0.721, 0.279]", fillcolor="#efb286"] ;
748 -> 750 ;
751 [label="HighBP <= 0.5\nentropy = 0.867\nsamples = 1.1%\nvalue = [0.712, 0.288]", fillcolor="#f0b489"] ;
743 -> 751 ;
752 [label="Income <= 3.5\nentropy = 0.758\nsamples = 0.2%\nvalue = [0.781, 0.219]", fillcolor="#eca470"] ;
751 -> 752 ;
753 [label="entropy = 0.586\nsamples = 0.1%\nvalue = [0.859, 0.141]", fillcolor="#e99659"] ;
752 -> 753 ;
754 [label="entropy = 0.822\nsamples = 0.1%\nvalue = [0.743, 0.257]", fillcolor="#eeac7d"] ;
752 -> 754 ;
755 [label="DiffWalk <= 0.5\nentropy = 0.885\nsamples = 0.9%\nvalue = [0.697, 0.303]", fillcolor="#f0b88f"] ;
751 -> 755 ;
756 [label="entropy = 0.841\nsamples = 0.4%\nvalue = [0.731, 0.269]", fillcolor="#efaf82"] ;
755 -> 756 ;
757 [label="entropy = 0.91\nsamples = 0.6%\nvalue = [0.675, 0.325]", fillcolor="#f2be99"] ;
755 -> 757 ;
758 [label="HighBP <= 0.5\nentropy = 0.943\nsamples = 0.8%\nvalue = [0.64, 0.36]", fillcolor="#f4c8a8"] ;
742 -> 758 ;
759 [label="Diabetes_bin <= 0.5\nentropy = 0.778\nsamples = 0.2%\nvalue = [0.77, 0.23]", fillcolor="#eda774"] ;
758 -> 759 ;
760 [label="AnyHealthcare <= 0.5\nentropy = 0.722\nsamples = 0.1%\nvalue = [0.8, 0.2]", fillcolor="#eca06a"] ;
759 -> 760 ;
761 [label="entropy = 0.0\nsamples = 0.0%\nvalue = [1.0, 0.0]", fillcolor="#e58139"] ;
760 -> 761 ;
762 [label="entropy = 0.736\nsamples = 0.1%\nvalue = [0.793, 0.207]", fillcolor="#eca26d"] ;
760 -> 762 ;
763 [label="PhysActivity <= 0.5\nentropy = 0.9\nsamples = 0.0%\nvalue = [0.684, 0.316]", fillcolor="#f1bb95"] ;
759 -> 763 ;
764 [label="entropy = 0.818\nsamples = 0.0%\nvalue = [0.746, 0.254]", fillcolor="#eeac7c"] ;
763 -> 764 ;
765 [label="entropy = 1.0\nsamples = 0.0%\nvalue = [0.5, 0.5]", fillcolor="#ffffff"] ;
763 -> 765 ;
766 [label="Age <= 11.5\nentropy = 0.965\nsamples = 0.7%\nvalue = [0.61, 0.39]", fillcolor="#f6d2b8"] ;
758 -> 766 ;
767 [label="Smoker <= 0.5\nentropy = 0.946\nsamples = 0.4%\nvalue = [0.635, 0.365]", fillcolor="#f4c9ab"] ;
766 -> 767 ;
768 [label="entropy = 0.867\nsamples = 0.2%\nvalue = [0.712, 0.288]", fillcolor="#f0b489"] ;
767 -> 768 ;
769 [label="entropy = 0.981\nsamples = 0.3%\nvalue = [0.582, 0.418]", fillcolor="#f8dcc7"] ;
767 -> 769 ;
770 [label="MentHlth_bin <= 1.5\nentropy = 0.989\nsamples = 0.2%\nvalue = [0.561, 0.439]", fillcolor="#f9e3d4"] ;
766 -> 770 ;
771 [label="entropy = 0.997\nsamples = 0.2%\nvalue = [0.533, 0.467]", fillcolor="#fcefe6"] ;
770 -> 771 ;
772 [label="entropy = 0.892\nsamples = 0.0%\nvalue = [0.691, 0.309]", fillcolor="#f1b991"] ;
770 -> 772 ;
773 [label="GenHlth <= 4.5\nentropy = 0.982\nsamples = 2.2%\nvalue = [0.579, 0.421]", fillcolor="#f8ddc9"] ;
741 -> 773 ;
774 [label="Age <= 9.5\nentropy = 0.967\nsamples = 1.6%\nvalue = [0.607, 0.393]", fillcolor="#f6d3b9"] ;
773 -> 774 ;
775 [label="Smoker <= 0.5\nentropy = 0.906\nsamples = 0.4%\nvalue = [0.679, 0.321]", fillcolor="#f1bd97"] ;
774 -> 775 ;
776 [label="Income <= 1.5\nentropy = 0.856\nsamples = 0.1%\nvalue = [0.719, 0.281]", fillcolor="#efb286"] ;
775 -> 776 ;
777 [label="entropy = 1.0\nsamples = 0.0%\nvalue = [0.5, 0.5]", fillcolor="#ffffff"] ;
776 -> 777 ;
778 [label="entropy = 0.837\nsamples = 0.1%\nvalue = [0.733, 0.267]", fillcolor="#eeaf81"] ;
776 -> 778 ;
779 [label="MentHlth_bin <= 1.5\nentropy = 0.928\nsamples = 0.3%\nvalue = [0.657, 0.343]", fillcolor="#f3c3a1"] ;
775 -> 779 ;
780 [label="entropy = 0.946\nsamples = 0.2%\nvalue = [0.637, 0.363]", fillcolor="#f4c9aa"] ;
779 -> 780 ;
781 [label="entropy = 0.71\nsamples = 0.0%\nvalue = [0.806, 0.194]", fillcolor="#eb9f69"] ;
779 -> 781 ;
782 [label="Income <= 3.5\nentropy = 0.981\nsamples = 1.2%\nvalue = [0.581, 0.419]", fillcolor="#f8dcc8"] ;
774 -> 782 ;
783 [label="Smoker <= 0.5\nentropy = 0.93\nsamples = 0.2%\nvalue = [0.655, 0.345]", fillcolor="#f3c4a2"] ;
782 -> 783 ;
784 [label="entropy = 0.806\nsamples = 0.1%\nvalue = [0.753, 0.247]", fillcolor="#eeaa7a"] ;
783 -> 784 ;
785 [label="entropy = 0.967\nsamples = 0.2%\nvalue = [0.606, 0.394]", fillcolor="#f6d3ba"] ;
783 -> 785 ;
786 [label="HighBP <= 0.5\nentropy = 0.988\nsamples = 1.0%\nvalue = [0.563, 0.437]", fillcolor="#f9e3d3"] ;
782 -> 786 ;
787 [label="entropy = 0.948\nsamples = 0.2%\nvalue = [0.634, 0.366]", fillcolor="#f4caab"] ;
786 -> 787 ;
788 [label="entropy = 0.994\nsamples = 0.8%\nvalue = [0.547, 0.453]", fillcolor="#fbe9dd"] ;
786 -> 788 ;
789 [label="HighBP <= 0.5\nentropy = 1.0\nsamples = 0.6%\nvalue = [0.506, 0.494]", fillcolor="#fefcfa"] ;
773 -> 789 ;
790 [label="Income <= 1.5\nentropy = 0.953\nsamples = 0.1%\nvalue = [0.627, 0.373]", fillcolor="#f4ccaf"] ;
789 -> 790 ;
791 [label="entropy = 0.0\nsamples = 0.0%\nvalue = [1.0, 0.0]", fillcolor="#e58139"] ;
790 -> 791 ;
792 [label="Age <= 9.5\nentropy = 0.965\nsamples = 0.1%\nvalue = [0.609, 0.391]", fillcolor="#f6d2b8"] ;
790 -> 792 ;
793 [label="entropy = 0.825\nsamples = 0.0%\nvalue = [0.741, 0.259]", fillcolor="#eead7e"] ;
792 -> 793 ;
794 [label="entropy = 0.991\nsamples = 0.1%\nvalue = [0.556, 0.444]", fillcolor="#fae6d7"] ;
792 -> 794 ;
795 [label="Smoker <= 0.5\nentropy = 0.999\nsamples = 0.5%\nvalue = [0.481, 0.519]", fillcolor="#f0f8fd"] ;
789 -> 795 ;
796 [label="DiffWalk <= 0.5\nentropy = 0.989\nsamples = 0.1%\nvalue = [0.56, 0.44]", fillcolor="#f9e4d4"] ;
795 -> 796 ;
797 [label="entropy = 0.926\nsamples = 0.0%\nvalue = [0.659, 0.341]", fillcolor="#f2c2a0"] ;
796 -> 797 ;
798 [label="entropy = 0.999\nsamples = 0.1%\nvalue = [0.518, 0.482]", fillcolor="#fdf6f1"] ;
796 -> 798 ;
799 [label="MentHlth_bin <= 0.5\nentropy = 0.993\nsamples = 0.4%\nvalue = [0.45, 0.55]", fillcolor="#dbedfa"] ;
795 -> 799 ;
800 [label="entropy = 0.976\nsamples = 0.2%\nvalue = [0.41, 0.59]", fillcolor="#c2e1f7"] ;
799 -> 800 ;
801 [label="entropy = 0.996\nsamples = 0.1%\nvalue = [0.536, 0.464]", fillcolor="#fbeee4"] ;
799 -> 801 ;
802 [label="GenHlth <= 4.5\nentropy = 0.998\nsamples = 1.4%\nvalue = [0.476, 0.524]", fillcolor="#edf6fd"] ;
676 -> 802 ;
803 [label="Sex <= 0.5\nentropy = 0.998\nsamples = 0.9%\nvalue = [0.529, 0.471]", fillcolor="#fcf1e9"] ;
802 -> 803 ;
804 [label="HighBP <= 0.5\nentropy = 0.981\nsamples = 0.5%\nvalue = [0.581, 0.419]", fillcolor="#f8dcc8"] ;
803 -> 804 ;
805 [label="Income <= 5.5\nentropy = 0.83\nsamples = 0.1%\nvalue = [0.738, 0.262]", fillcolor="#eeae7f"] ;
804 -> 805 ;
806 [label="PhysActivity <= 0.5\nentropy = 0.918\nsamples = 0.1%\nvalue = [0.667, 0.333]", fillcolor="#f2c09c"] ;
805 -> 806 ;
807 [label="PhysHlth_bin <= 1.5\nentropy = 0.985\nsamples = 0.0%\nvalue = [0.571, 0.429]", fillcolor="#f8e0ce"] ;
806 -> 807 ;
808 [label="entropy = 0.998\nsamples = 0.0%\nvalue = [0.472, 0.528]", fillcolor="#eaf5fc"] ;
807 -> 808 ;
809 [label="entropy = 0.619\nsamples = 0.0%\nvalue = [0.846, 0.154]", fillcolor="#ea985d"] ;
807 -> 809 ;
810 [label="NoDocbcCost <= 0.5\nentropy = 0.834\nsamples = 0.0%\nvalue = [0.735, 0.265]", fillcolor="#eeae80"] ;
806 -> 810 ;
811 [label="entropy = 0.899\nsamples = 0.0%\nvalue = [0.685, 0.315]", fillcolor="#f1bb94"] ;
810 -> 811 ;
812 [label="entropy = 0.371\nsamples = 0.0%\nvalue = [0.929, 0.071]", fillcolor="#e78b48"] ;
810 -> 812 ;
813 [label="HighChol <= 0.5\nentropy = 0.42\nsamples = 0.0%\nvalue = [0.915, 0.085]", fillcolor="#e78d4b"] ;
805 -> 813 ;
814 [label="entropy = 0.0\nsamples = 0.0%\nvalue = [1.0, 0.0]", fillcolor="#e58139"] ;
813 -> 814 ;
815 [label="Education <= 5.5\nentropy = 0.65\nsamples = 0.0%\nvalue = [0.833, 0.167]", fillcolor="#ea9a61"] ;
813 -> 815 ;
816 [label="entropy = 0.353\nsamples = 0.0%\nvalue = [0.933, 0.067]", fillcolor="#e78a47"] ;
815 -> 816 ;
817 [label="entropy = 0.918\nsamples = 0.0%\nvalue = [0.667, 0.333]", fillcolor="#f2c09c"] ;
815 -> 817 ;
818 [label="DiffWalk <= 0.5\nentropy = 0.993\nsamples = 0.4%\nvalue = [0.548, 0.452]", fillcolor="#fae9dc"] ;
804 -> 818 ;
819 [label="HvyAlcoholConsump <= 0.5\nentropy = 0.961\nsamples = 0.1%\nvalue = [0.616, 0.384]", fillcolor="#f5d0b5"] ;
818 -> 819 ;
820 [label="MentHlth_bin <= 0.5\nentropy = 0.967\nsamples = 0.1%\nvalue = [0.606, 0.394]", fillcolor="#f6d3ba"] ;
819 -> 820 ;
821 [label="entropy = 0.944\nsamples = 0.1%\nvalue = [0.638, 0.362]", fillcolor="#f4c8a9"] ;
820 -> 821 ;
822 [label="entropy = 0.987\nsamples = 0.0%\nvalue = [0.432, 0.568]", fillcolor="#d0e8f9"] ;
820 -> 822 ;
823 [label="entropy = 0.0\nsamples = 0.0%\nvalue = [1.0, 0.0]", fillcolor="#e58139"] ;
819 -> 823 ;
824 [label="Income <= 2.5\nentropy = 0.999\nsamples = 0.3%\nvalue = [0.517, 0.483]", fillcolor="#fdf7f2"] ;
818 -> 824 ;
825 [label="HighChol <= 0.5\nentropy = 0.992\nsamples = 0.1%\nvalue = [0.447, 0.553]", fillcolor="#d9ecfa"] ;
824 -> 825 ;
826 [label="entropy = 0.928\nsamples = 0.0%\nvalue = [0.656, 0.344]", fillcolor="#f3c3a1"] ;
825 -> 826 ;
827 [label="entropy = 0.968\nsamples = 0.1%\nvalue = [0.395, 0.605]", fillcolor="#baddf6"] ;
825 -> 827 ;
828 [label="AnyHealthcare <= 0.5\nentropy = 0.994\nsamples = 0.2%\nvalue = [0.547, 0.453]", fillcolor="#fbe9dd"] ;
824 -> 828 ;
829 [label="entropy = 0.0\nsamples = 0.0%\nvalue = [1.0, 0.0]", fillcolor="#e58139"] ;
828 -> 829 ;
830 [label="entropy = 0.995\nsamples = 0.2%\nvalue = [0.541, 0.459]", fillcolor="#fbece1"] ;
828 -> 830 ;
831 [label="Age <= 9.5\nentropy = 0.997\nsamples = 0.4%\nvalue = [0.468, 0.532]", fillcolor="#e7f3fc"] ;
803 -> 831 ;
832 [label="Income <= 7.5\nentropy = 0.993\nsamples = 0.1%\nvalue = [0.549, 0.451]", fillcolor="#fae8dc"] ;
831 -> 832 ;
833 [label="Smoker <= 0.5\nentropy = 0.999\nsamples = 0.1%\nvalue = [0.516, 0.484]", fillcolor="#fdf7f2"] ;
832 -> 833 ;
834 [label="MentHlth_bin <= 1.5\nentropy = 0.956\nsamples = 0.0%\nvalue = [0.378, 0.622]", fillcolor="#b1d8f5"] ;
833 -> 834 ;
835 [label="entropy = 0.868\nsamples = 0.0%\nvalue = [0.289, 0.711]", fillcolor="#8ac5f0"] ;
834 -> 835 ;
836 [label="entropy = 0.592\nsamples = 0.0%\nvalue = [0.857, 0.143]", fillcolor="#e9965a"] ;
834 -> 836 ;
837 [label="Fruits <= 0.5\nentropy = 0.984\nsamples = 0.1%\nvalue = [0.574, 0.426]", fillcolor="#f8decc"] ;
833 -> 837 ;
838 [label="entropy = 1.0\nsamples = 0.0%\nvalue = [0.492, 0.508]", fillcolor="#f9fcfe"] ;
837 -> 838 ;
839 [label="entropy = 0.884\nsamples = 0.0%\nvalue = [0.698, 0.302]", fillcolor="#f0b88f"] ;
837 -> 839 ;
840 [label="PhysHlth_bin <= 1.5\nentropy = 0.722\nsamples = 0.0%\nvalue = [0.8, 0.2]", fillcolor="#eca06a"] ;
832 -> 840 ;
841 [label="PhysActivity <= 0.5\nentropy = 0.918\nsamples = 0.0%\nvalue = [0.667, 0.333]", fillcolor="#f2c09c"] ;
840 -> 841 ;
842 [label="entropy = 0.811\nsamples = 0.0%\nvalue = [0.25, 0.75]", fillcolor="#7bbeee"] ;
841 -> 842 ;
843 [label="entropy = 0.544\nsamples = 0.0%\nvalue = [0.875, 0.125]", fillcolor="#e99355"] ;
841 -> 843 ;
844 [label="entropy = 0.0\nsamples = 0.0%\nvalue = [1.0, 0.0]", fillcolor="#e58139"] ;
840 -> 844 ;
845 [label="Smoker <= 0.5\nentropy = 0.991\nsamples = 0.3%\nvalue = [0.445, 0.555]", fillcolor="#d8ecfa"] ;
831 -> 845 ;
846 [label="Income <= 6.5\nentropy = 0.999\nsamples = 0.1%\nvalue = [0.523, 0.477]", fillcolor="#fdf4ee"] ;
845 -> 846 ;
847 [label="PhysHlth_bin <= 0.5\nentropy = 0.984\nsamples = 0.1%\nvalue = [0.574, 0.426]", fillcolor="#f8decc"] ;
846 -> 847 ;
848 [label="entropy = 1.0\nsamples = 0.0%\nvalue = [0.493, 0.507]", fillcolor="#f9fcfe"] ;
847 -> 848 ;
849 [label="entropy = 0.872\nsamples = 0.0%\nvalue = [0.707, 0.293]", fillcolor="#f0b58b"] ;
847 -> 849 ;
850 [label="Education <= 5.5\nentropy = 0.99\nsamples = 0.0%\nvalue = [0.441, 0.559]", fillcolor="#d5eafa"] ;
846 -> 850 ;
851 [label="entropy = 0.881\nsamples = 0.0%\nvalue = [0.3, 0.7]", fillcolor="#8ec7f0"] ;
850 -> 851 ;
852 [label="entropy = 0.992\nsamples = 0.0%\nvalue = [0.553, 0.447]", fillcolor="#fae7d9"] ;
850 -> 852 ;
853 [label="BMI_bin <= 1.5\nentropy = 0.978\nsamples = 0.2%\nvalue = [0.414, 0.586]", fillcolor="#c5e2f7"] ;
845 -> 853 ;
854 [label="Diabetes_bin <= 0.5\nentropy = 0.997\nsamples = 0.0%\nvalue = [0.535, 0.465]", fillcolor="#fcefe5"] ;
853 -> 854 ;
855 [label="entropy = 0.979\nsamples = 0.0%\nvalue = [0.584, 0.416]", fillcolor="#f7dbc6"] ;
854 -> 855 ;
856 [label="entropy = 0.954\nsamples = 0.0%\nvalue = [0.375, 0.625]", fillcolor="#b0d8f5"] ;
854 -> 856 ;
857 [label="AnyHealthcare <= 0.5\nentropy = 0.956\nsamples = 0.2%\nvalue = [0.378, 0.622]", fillcolor="#b1d8f5"] ;
853 -> 857 ;
858 [label="entropy = 0.0\nsamples = 0.0%\nvalue = [0.0, 1.0]", fillcolor="#399de5"] ;
857 -> 858 ;
859 [label="entropy = 0.96\nsamples = 0.2%\nvalue = [0.382, 0.618]", fillcolor="#b3daf5"] ;
857 -> 859 ;
860 [label="Diabetes_bin <= 0.5\nentropy = 0.965\nsamples = 0.5%\nvalue = [0.39, 0.61]", fillcolor="#b8dcf6"] ;
802 -> 860 ;
861 [label="Sex <= 0.5\nentropy = 0.998\nsamples = 0.3%\nvalue = [0.474, 0.526]", fillcolor="#ecf5fc"] ;
860 -> 861 ;
862 [label="AnyHealthcare <= 0.5\nentropy = 0.999\nsamples = 0.2%\nvalue = [0.521, 0.479]", fillcolor="#fdf5ef"] ;
861 -> 862 ;
863 [label="entropy = 0.0\nsamples = 0.0%\nvalue = [1.0, 0.0]", fillcolor="#e58139"] ;
862 -> 863 ;
864 [label="HighBP <= 0.5\nentropy = 1.0\nsamples = 0.2%\nvalue = [0.511, 0.489]", fillcolor="#fef9f6"] ;
862 -> 864 ;
865 [label="Age <= 12.5\nentropy = 0.962\nsamples = 0.0%\nvalue = [0.614, 0.386]", fillcolor="#f5d0b5"] ;
864 -> 865 ;
866 [label="entropy = 0.923\nsamples = 0.0%\nvalue = [0.662, 0.338]", fillcolor="#f2c19e"] ;
865 -> 866 ;
867 [label="entropy = 0.971\nsamples = 0.0%\nvalue = [0.4, 0.6]", fillcolor="#bddef6"] ;
865 -> 867 ;
868 [label="NoDocbcCost <= 0.5\nentropy = 0.998\nsamples = 0.1%\nvalue = [0.473, 0.527]", fillcolor="#ebf5fc"] ;
864 -> 868 ;
869 [label="entropy = 1.0\nsamples = 0.1%\nvalue = [0.497, 0.503]", fillcolor="#fdfeff"] ;
868 -> 869 ;
870 [label="entropy = 0.947\nsamples = 0.0%\nvalue = [0.366, 0.634]", fillcolor="#abd6f4"] ;
868 -> 870 ;
871 [label="HighChol <= 0.5\nentropy = 0.977\nsamples = 0.1%\nvalue = [0.41, 0.59]", fillcolor="#c3e1f7"] ;
861 -> 871 ;
872 [label="Fruits <= 0.5\nentropy = 0.996\nsamples = 0.0%\nvalue = [0.535, 0.465]", fillcolor="#fceee5"] ;
871 -> 872 ;
873 [label="HighBP <= 0.5\nentropy = 0.902\nsamples = 0.0%\nvalue = [0.682, 0.318]", fillcolor="#f1bc95"] ;
872 -> 873 ;
874 [label="entropy = 0.985\nsamples = 0.0%\nvalue = [0.429, 0.571]", fillcolor="#cee6f8"] ;
873 -> 874 ;
875 [label="entropy = 0.722\nsamples = 0.0%\nvalue = [0.8, 0.2]", fillcolor="#eca06a"] ;
873 -> 875 ;
876 [label="PhysHlth_bin <= 1.5\nentropy = 0.997\nsamples = 0.0%\nvalue = [0.469, 0.531]", fillcolor="#e8f4fc"] ;
872 -> 876 ;
877 [label="entropy = 0.837\nsamples = 0.0%\nvalue = [0.267, 0.733]", fillcolor="#81c1ee"] ;
876 -> 877 ;
878 [label="entropy = 0.99\nsamples = 0.0%\nvalue = [0.559, 0.441]", fillcolor="#fae4d5"] ;
876 -> 878 ;
879 [label="BMI_bin <= 0.5\nentropy = 0.938\nsamples = 0.1%\nvalue = [0.354, 0.646]", fillcolor="#a6d3f3"] ;
871 -> 879 ;
880 [label="entropy = 0.0\nsamples = 0.0%\nvalue = [0.0, 1.0]", fillcolor="#399de5"] ;
879 -> 880 ;
881 [label="PhysActivity <= 0.5\nentropy = 0.948\nsamples = 0.1%\nvalue = [0.366, 0.634]", fillcolor="#abd6f4"] ;
879 -> 881 ;
882 [label="entropy = 0.847\nsamples = 0.0%\nvalue = [0.274, 0.726]", fillcolor="#84c2ef"] ;
